4863 32
</s> 0.012508 0.013811 -0.011970 -0.010244 0.004271 0.009441 0.002940 0.000660 -0.011261 0.006933 -0.013614 0.003905 -0.002348 -0.002991 -0.010362 -0.005882 0.008060 0.009454 0.009278 0.004992 0.004827 -0.011883 -0.012799 0.015530 0.011879 0.009656 -0.001887 0.012549 -0.001547 0.002296 -0.000466 -0.009323 
17843c50-d78b-4aae-96d8-1e73c02b88a8 -1.028574 0.454453 -1.240549 -0.683023 -0.129508 -0.557858 1.965945 -0.734759 0.660993 0.112251 1.139181 0.233851 1.042601 -0.887994 -0.413855 -0.132588 -0.112504 0.004198 -0.913201 -0.096733 0.134170 -0.745193 0.116600 -0.186918 0.874396 1.164970 0.288840 0.009816 0.002198 0.515852 0.369954 -0.218329 
cc8f46dd-27a3-4042-8b25-459f6d4a3679 -0.362063 1.246887 -0.150603 -0.498683 0.139987 -0.258251 1.592383 -1.719134 -0.385637 -0.457783 0.970991 -0.718643 0.792026 -1.400524 0.361753 1.645670 0.375505 -0.190530 -1.154933 0.939456 -0.777592 -0.077638 -0.416214 -0.388348 0.788058 0.406633 -0.384243 0.802453 1.251237 -0.862905 -0.055614 0.079550 
d4342494-6a99-4b68-8f9b-bd691f15de9c -1.045467 0.732100 -1.110140 -0.164916 -0.449899 -0.149830 1.951544 -0.590446 1.009504 -0.579075 -0.476767 -0.577706 2.100527 -0.881839 0.027588 0.514521 -0.548579 0.475684 -0.210674 0.636185 -0.342237 0.149407 0.156228 -0.706838 0.316686 0.723736 0.701040 0.940201 -0.015011 -0.054864 -0.392541 0.204597 
42be9a79-bd26-494b-982b-296beecd9d8d -0.574663 0.717302 -0.731529 -0.639529 1.681121 -0.415605 1.083269 -0.536059 -0.222969 0.636104 0.111025 0.048083 1.555768 -1.270051 0.926039 0.169729 0.047090 0.227385 0.678320 1.001060 -0.630625 -0.802500 0.224818 -0.720036 0.328891 1.010177 -0.625229 -0.146890 0.041202 0.903324 0.020962 0.662584 
2c6d80e8-f3ef-4845-bfc2-bd8e84c86bd9 0.018267 0.639859 -0.292555 -0.917515 0.687174 -0.207024 1.291606 -0.660408 -0.342813 0.134377 0.277657 -0.278810 2.053985 -1.291513 -1.269307 1.490592 -0.375071 0.272286 -0.581584 0.965871 -0.277571 -0.068613 0.008597 0.230366 0.375476 0.128416 0.605718 0.135041 0.678128 -0.316696 -0.742276 0.036917 
4571593c-89dd-47a3-94eb-8804a5a2c79b -0.168293 0.404587 -0.459800 0.322004 0.866649 -0.182769 1.775639 0.257204 0.634624 0.083329 -0.333096 -0.714852 1.218452 -1.052989 0.632467 1.838758 0.636569 0.965048 -1.674776 1.283545 0.042879 -0.753160 -0.279642 -0.119244 1.016659 -0.386032 -0.077524 -0.186477 -0.200926 0.032270 -0.763382 0.599701 
cf4aaf7c-a430-4191-8504-3317b72b099a -0.924958 0.941083 -1.066582 -0.274632 0.431649 -0.733251 0.674360 -1.181472 -0.316874 -0.124330 0.631457 -0.141941 2.230724 -1.941869 -0.457137 0.583197 0.143517 0.638573 -0.605171 1.935758 0.837644 -0.288529 0.010165 -1.023039 0.297587 0.086133 0.306468 0.717291 0.521559 -0.067973 -0.086976 -0.514979 
5effac5c-35b6-4658-8291-a0e9fe63541d -0.570025 0.654632 -1.364046 0.385870 0.892374 0.166623 1.056718 -0.777749 -0.219433 0.056894 0.165822 0.156899 1.548632 -0.594095 -0.731066 0.577299 -0.605436 0.146146 -0.876525 0.395427 -0.225736 0.395297 -0.686647 -0.319267 0.385809 0.483853 0.055530 0.469690 1.011861 -0.674394 -0.279276 0.181818 
9370ab63-e627-47bf-bc00-606dc8eb366e -0.936836 0.775765 0.220831 -0.253199 0.518970 -1.107937 1.556396 -1.038188 -0.213271 -0.414117 -0.280354 -0.603225 1.428328 -0.517825 1.665074 0.717406 0.243075 0.689149 -1.716134 -1.167450 0.475486 0.296155 -0.252064 -0.637943 1.052136 0.775539 0.053034 0.131991 -0.463592 0.702715 -0.291270 0.154697 
9790f34f-d2db-4795-ac46-4443c0411fd6 -0.464703 -0.397728 -1.453834 -0.864551 -0.788934 -0.820034 1.166279 -0.050284 -0.722698 0.219282 -0.243174 -0.563072 0.903914 -1.030121 0.923301 1.767542 -0.920355 0.798753 -2.043438 1.348387 -0.027180 -1.260088 -0.249833 -1.303324 0.537117 -0.251673 0.918645 0.955269 0.638819 -0.651984 -0.409023 -0.765599 
7dc3db3c-8422-473d-8344-2f8653157581 -0.928532 0.683526 0.590867 0.538781 0.448467 0.765428 1.813656 -1.032907 0.388853 -0.420450 0.482900 -1.388597 1.672152 -0.282296 1.029755 -0.193090 0.326802 0.211033 0.501529 0.625648 0.516834 0.465035 -0.166105 -1.492854 0.783450 -0.114126 -0.755819 0.029926 -1.297556 0.141749 0.125412 0.434727 
fa9a10a7-50ab-41ad-9b12-dfd1f9c4b241 -0.449063 -0.041854 0.567913 0.066689 -0.141966 -0.292313 1.056015 -0.843034 -0.407728 0.796064 0.638076 -0.853617 1.389137 -0.824619 0.117465 0.398453 0.492190 0.191287 0.327025 0.586077 0.181735 -0.132558 0.771476 -0.535781 1.108700 1.078041 -0.524278 0.162543 -0.264323 -0.166486 -0.218699 0.466042 
cbd25042-ef0b-467f-8dfd-4ff70c2e5824 -0.375346 0.341592 -0.537536 0.214924 0.648274 -0.450869 0.915188 -0.584815 -0.497205 -0.635468 0.453791 -1.206314 1.043829 -0.634107 0.177544 -0.534799 -0.555533 0.459689 -1.292146 1.130784 0.389728 -0.222992 0.153503 0.175097 -0.163863 -0.051157 -0.505687 -0.684888 0.043061 -0.632629 -0.215867 0.380957 
86bfe90e-54de-42b2-a7e4-adb0eed50a9c 0.081959 0.055478 -0.800974 -1.041592 0.245490 -0.609609 0.837806 -0.360863 -1.074672 0.080988 0.093778 -0.383913 1.615024 -0.546315 -0.056641 0.155721 -0.281181 1.367509 -1.155686 1.480096 0.298000 0.098279 0.365581 -0.887588 1.724239 0.661163 0.355450 -0.682264 0.828323 -0.493126 -0.692252 -1.004204 
1d2e4afe-c262-4824-b401-a76413a7860c -1.349397 0.585157 -0.869938 -0.140252 -1.778002 -0.259998 0.464774 -0.585279 -1.345161 0.001670 -0.890358 0.607144 0.931850 -0.406313 -0.284437 -0.208061 0.361183 -0.005719 -0.099421 1.075730 -0.172888 -1.027398 1.841511 -0.403808 0.489587 -0.953756 0.486565 0.601869 -0.035441 -0.526835 -0.996921 -0.243950 
7d7d2f72-8207-4f0c-ae8b-241c27110ea8 -0.821511 -0.652342 0.527775 -0.459608 1.374993 -1.146066 1.613153 -0.989693 -1.501346 -0.420162 0.396244 -1.565262 1.266070 -0.844855 1.202918 0.594298 0.265832 -0.264157 -0.120170 -0.028950 0.143449 0.779944 0.349176 -0.215179 2.412370 0.954237 -0.135683 -0.188582 -0.252852 -0.465297 -1.622771 0.655731 
409d56ed-abad-4323-b2dc-49b848331529 -0.958258 0.455330 -0.402250 -0.344884 0.731725 0.193562 1.664880 -0.792209 -0.008481 -0.845557 0.725695 -0.642842 1.554729 -0.973454 1.367031 1.796811 0.218230 1.254564 -1.185963 -0.422392 0.342221 -0.612859 0.082938 -0.270947 -0.921735 0.446761 0.350848 -1.501524 0.365554 0.194783 0.633786 0.992822 
241505a7-c6d7-4a7b-a913-aad0389c4606 -2.095614 0.648385 -1.073390 -0.776560 0.020064 -0.821531 0.402618 -0.746949 0.457054 0.197291 -0.421565 0.018991 0.426160 -0.685620 -0.504614 -0.060224 0.563033 -0.574572 -0.461406 0.594031 -0.816815 -0.951888 -0.713388 -1.811119 0.861602 -0.227758 -1.110562 -1.002249 1.162245 -0.581913 0.502025 0.846483 
fb6140d5-7a55-4d07-8ec5-b845c2a1a928 -0.526369 0.481067 -0.209488 -1.583267 0.981964 -0.463899 1.500402 0.132031 -0.263285 0.135658 -0.355070 0.721327 1.841334 -0.765135 0.888786 0.515086 0.611597 -0.331036 0.562240 1.695379 0.611122 0.592649 -0.454493 -0.510419 -0.654233 0.851767 1.156729 -0.468612 -0.161790 0.421308 0.142653 -0.388457 
20f8d6a5-77a9-44a2-a35c-5bfc5b431936 -1.060197 0.398281 -0.874727 -0.173911 0.248826 -0.350541 1.390100 -0.626056 0.034676 0.768965 -0.331139 -1.495370 2.320905 -1.214942 0.890930 0.270338 0.377616 -0.283597 -0.765105 0.326724 -0.043578 -0.092223 0.142920 -0.186142 -0.405966 1.719024 0.299391 -0.376366 0.754329 0.429400 -0.341937 0.911306 
491ed56e-1c1f-4d3f-8c61-27e3f4dcb32c -0.504367 0.194381 -0.150176 -0.357098 1.365316 -0.523188 1.030624 -1.127810 0.124895 0.451582 -0.411731 -0.073519 0.828533 -0.347976 -0.603092 0.681074 -0.129278 1.569125 -0.263779 1.145222 0.212410 -0.889957 0.176995 -1.204276 0.621193 0.692033 -0.952369 -0.536148 0.763086 -1.073853 -0.635104 -0.125005 
3b34f5d9-15be-487f-b4fa-23e2cd2d8935 -0.334111 1.021031 0.161730 0.663252 0.070739 -0.609194 0.806387 -0.809008 -0.740622 1.060467 0.683634 -0.253827 1.925577 -1.182702 0.459396 1.168436 0.880322 0.261639 -0.862117 -0.836554 0.097642 0.751793 0.501543 -0.668743 1.258585 -0.402225 -0.715198 -0.167875 0.368374 0.453306 0.043994 0.802579 
59d4ab9b-35f5-4de8-bf63-ce62ba6bf024 -0.330026 0.026159 -0.306641 -1.036093 -0.472124 -0.453165 1.976564 -0.808805 -1.468392 0.865016 0.766990 -0.227358 2.551638 0.119768 0.220164 0.672475 1.550938 0.298727 -1.280587 0.125178 1.074935 0.041912 0.244460 -0.618104 1.019753 1.296578 -0.098301 -0.065689 1.619370 1.045849 -1.749109 1.172291 
fca3c375-df2d-45aa-800b-63845ebe4044 -0.740881 0.712679 -0.141900 -0.685536 -0.333746 -1.128995 2.129409 -0.156323 -1.324910 -1.039275 -0.813577 0.009619 2.442755 -0.810508 0.910812 0.842932 -0.245212 1.240394 -0.290272 -0.214889 -0.472416 -0.174953 -0.639544 -0.512557 0.459187 0.065994 0.664699 1.185651 0.381449 -0.106241 0.378743 0.709280 
af2d5eeb-96fd-4777-b460-73966e4bb949 -1.909338 0.203373 -0.242143 -0.637469 -0.376516 0.599954 0.768107 -0.524434 0.338088 -1.181050 0.350450 -0.756605 1.221106 -1.339728 1.458952 1.567432 -0.055832 0.707555 -0.279491 0.665382 0.308236 -0.155780 0.240600 0.240171 0.762416 -0.072290 0.639261 0.511476 0.367524 0.530343 0.587978 -0.454020 
77a2c3f3-5160-4d77-9701-9a6ee799b05f -1.406179 0.796618 0.119300 -0.598654 1.629111 1.019536 1.017252 -1.514255 0.175665 0.577766 -0.185945 0.366940 0.657500 -0.563158 -0.797870 -0.221710 -0.187726 -1.347562 -0.789338 0.632270 1.214731 0.044776 0.129081 -0.151763 0.961163 -0.528807 -0.515518 0.009668 0.541388 -0.639654 0.392600 0.629145 
3169afe0-7a4b-4697-b3f0-c5a91655a450 -1.372655 -0.081739 -1.536634 0.147359 0.887086 -0.602879 1.109048 -1.088829 -0.371868 -0.376366 0.039754 0.356484 0.509264 -0.557349 -0.559634 0.555479 0.647738 0.706230 -1.421072 0.814618 0.201872 -0.838404 0.067248 -0.200002 0.575599 -0.736877 0.015860 -0.053450 -0.762490 -0.434497 0.437146 0.763332 
0041bcd2-2c4e-43b9-bd9d-474f7c884d87 -0.427018 0.353301 0.677963 0.884139 0.784384 0.435920 -0.213663 -1.558157 0.530326 0.062353 0.776696 -0.102195 1.089327 -0.462885 -0.484053 0.350212 -0.355260 0.677682 -0.608159 0.490792 0.941247 0.593835 -0.121507 -0.582921 0.448153 0.319359 0.524870 0.420706 0.566048 0.365203 0.689362 0.362269 
8ee185d9-642c-419f-a2b3-8febcf5e7d8d -0.419062 0.130657 -1.079215 -0.358932 0.060787 -0.857243 0.927795 -1.324540 -0.037183 -0.325992 -0.247522 0.337363 1.726150 -0.758839 0.011686 0.796613 -1.222381 1.161680 -0.110655 1.159176 0.085332 -0.606185 0.794302 0.798901 0.994402 1.292002 0.068062 0.949864 0.097299 -1.442831 0.887005 -0.407772 
5d59f9c0-5d7d-4ac8-b210-a00a5b773e2d -0.220244 0.971646 0.021537 0.196809 0.922798 -0.276674 1.178649 -0.017486 -0.067264 0.579966 -0.443641 -0.114838 0.789796 -1.344090 0.390134 0.651736 0.544279 0.194521 -0.469571 1.229475 0.263097 -0.822237 1.118535 -0.343432 -0.172248 -0.459155 -1.556705 -0.215371 -0.135995 0.647780 0.404378 -0.515686 
c77e775b-d0c3-4ac2-8fe0-63e8a0f400a9 -1.055436 0.958042 -0.970050 -0.780950 -0.504843 -0.108007 1.458045 -1.056813 0.187002 0.586748 0.208702 -1.427697 0.460160 -2.164688 0.548219 0.393211 0.942556 -0.649526 -2.633673 0.602427 -0.163253 -0.993903 0.037837 -0.791516 0.267371 -0.144519 -0.197809 0.228876 -0.298314 0.109913 -0.313618 -0.700021 
c431cd40-5ccb-463a-a289-c14b1ed454b1 -0.911148 1.021137 -1.362301 -0.584470 -0.678499 -0.851871 0.778732 -0.682003 -0.111884 -0.005759 0.369438 -0.957927 1.479116 -0.699915 0.363171 1.394355 -0.409784 -0.443568 -0.876123 0.768003 -0.575430 -0.493393 0.458655 -0.550390 0.932548 -1.062523 0.809956 0.457297 1.276653 -0.087265 -0.103234 0.147592 
b0f9cb33-c219-400c-8570-57e0c57fcc3b 0.142878 -0.142397 0.298552 -0.110080 -0.076249 -0.529896 1.941113 -0.046873 -1.068380 1.384750 0.874896 -0.240700 1.022751 0.588145 0.734852 0.843084 -0.459715 0.368546 0.169494 1.250654 -0.206138 -0.131181 1.687317 -0.566039 2.192062 0.640303 0.381257 0.058768 0.810717 1.170510 -1.178431 0.256027 
f36b64e4-8fc6-4b93-8e23-c6c2a4f29b6b 0.044587 0.744443 -0.584471 -1.234500 1.294426 0.290099 2.281880 -1.076443 0.310617 -0.059074 0.841778 0.684369 0.805513 -1.349727 0.025549 0.664493 0.423659 -0.623440 -0.990525 0.406318 0.094009 0.086592 -0.014436 -0.150452 1.813405 0.770923 -0.957663 0.298493 0.212548 -0.913636 0.122531 0.378586 
5336edba-35cd-441e-9009-dd9a2ddab442 1.009513 0.321689 -0.886860 -0.420130 0.214489 -1.190037 0.240024 -0.691132 -0.786632 -0.047618 0.150302 0.395125 0.349792 -0.494454 -0.026642 1.523569 0.491165 0.776769 0.004363 1.347023 -0.084952 -0.049319 -0.126038 -0.555718 1.434803 1.092908 -0.373596 0.425900 0.876339 -0.011735 -0.744044 -0.241572 
a5aa9e9a-13c2-4b7c-89ec-98be92f2483d -0.040778 0.604398 -1.614852 0.033750 -0.247543 0.580590 1.079991 -0.042832 -0.514634 0.392236 1.039181 0.647433 0.808118 -1.350320 1.169569 1.565787 -0.765791 1.910529 -1.216349 0.635207 0.466474 -0.084429 -0.674237 0.295707 0.866674 0.560458 0.116588 -0.378607 1.303996 -0.744617 -0.614125 -0.813371 
1dd72985-3c83-4218-bdca-e74fe38e2a03 -0.906343 0.654396 -1.511246 -0.435917 1.053547 -0.272254 1.395907 -1.070165 0.784749 -0.592435 -0.478711 -0.293211 0.296223 -0.363065 0.450726 0.667560 -1.104394 1.059361 -0.603712 0.448273 1.580546 -0.381759 -0.415908 -1.287343 0.438638 0.629575 -0.587550 1.026826 -0.313509 0.045539 -0.340839 -0.140919 
ee498ff7-4454-410e-b07b-d0359a3414d6 -0.188067 -0.612078 -0.802570 0.910348 -0.572757 -0.607312 1.358486 -0.223057 0.692763 0.983087 -0.527331 -1.042298 2.425494 -1.156471 0.959329 0.677863 0.740261 0.922935 -0.081895 0.490717 -0.413357 0.171855 -0.308832 -1.602165 -0.218031 1.075111 1.466970 0.035243 1.254970 -0.087107 -0.296282 0.475599 
6746fa34-f321-4a2d-9de3-504d8f8d4ace -0.652776 -0.575284 -0.458173 0.325494 1.250759 0.187130 0.794027 -0.584398 -0.404490 1.050392 -1.215268 0.025462 1.624257 -1.492765 0.641063 1.296964 -0.609093 0.632514 -0.635382 0.923796 0.650452 -0.601437 0.258259 -1.272852 1.549888 1.241725 -0.685676 -0.665984 0.879160 0.041318 -0.686279 -1.677440 
37fc04f3-13cb-42b1-b79d-d4766480e0a2 -0.071284 1.326964 -0.296403 -0.007385 0.493535 0.320463 -0.174320 -1.927960 -0.129155 -0.847471 -0.417875 -0.251170 0.452291 -1.252976 -0.618063 0.801852 -0.694382 0.267494 -0.552414 0.923122 0.680753 -0.515673 0.073043 -1.356084 0.360726 0.025921 1.957486 0.175925 1.351239 -0.031475 -1.573311 -0.497888 
69d98d21-60c3-424c-a27d-51f47447b49d -0.958878 1.529227 -2.060214 0.325438 -0.075899 0.626879 1.069175 -0.559395 -0.488022 0.748260 -0.444274 -0.874612 2.383125 -2.431144 0.021343 1.101860 -0.211163 -0.602052 -2.225417 0.676781 0.998169 -0.946761 1.020494 -0.937526 -0.317897 -0.028712 -0.044718 0.792329 0.698875 1.210959 -1.074420 0.284809 
3bd7f5ba-8b7a-4aaf-991d-fef9a77b1b77 -0.689710 1.203835 -0.275889 0.175441 -0.070134 -0.583894 1.725934 -0.636270 -0.726397 0.686034 -0.291979 -0.052464 1.400969 -1.722387 -0.197233 -1.006755 0.347656 -0.262476 -0.693977 1.060215 1.414859 0.536381 -0.518053 0.020911 1.225015 0.210237 0.875678 0.239782 0.036529 1.407587 0.078207 -0.125481 
3d706999-f097-4d34-bb38-bdc788252460 -0.913881 2.231237 -0.309383 -1.355012 0.454937 -0.766286 1.072514 -1.426965 0.976926 0.935610 0.484534 0.424476 0.655514 -0.256547 -0.333360 1.942548 -0.014171 1.083678 0.564443 1.168931 0.049164 -0.520906 -0.790323 -0.046657 0.865007 -0.550505 0.481988 -0.319390 -0.133739 -0.894383 -0.635416 0.603372 
bcc7a338-93bd-4862-8253-90a983f7d326 -0.867281 2.139638 0.083000 -1.367868 0.085700 -0.058695 0.411768 -0.807177 -0.079986 0.485266 0.823774 -0.868484 0.731248 -0.281153 0.996490 1.595716 1.303291 0.377222 -0.710155 1.659946 -0.232673 0.361428 -0.097417 -0.227966 2.559182 0.251170 0.122998 0.070318 0.019530 -1.204868 -1.186350 -0.159950 
f13cfe98-3345-43d4-8e28-f016ce9cfe59 -0.684618 2.643252 -0.908930 -0.768660 0.800609 -0.107637 2.250283 -1.340659 -1.052140 0.107146 0.681968 -0.752786 1.812568 -0.715394 -0.066956 -0.964309 0.338237 0.365810 0.454238 -0.280609 0.844918 -0.490641 0.457470 -0.672674 0.859694 1.916887 -0.314984 0.235456 1.423012 0.599594 -0.565135 0.836345 
2b49cc72-8555-4651-b9a2-239f6c0ac26d 0.163588 2.277488 -2.073199 0.470980 -0.926838 -1.836796 0.904391 -1.151260 -1.993776 0.275539 0.383132 -1.000873 1.568040 -0.961481 -0.969938 -0.102930 -0.331139 0.651691 -0.406169 1.549773 1.309396 -0.367119 -0.472382 0.397773 0.825940 1.405392 0.640258 1.182714 0.366586 1.423331 -1.954717 -0.603800 
2c804363-5e84-451f-a150-fe731d7c29cc 0.061686 0.206179 -0.215991 -0.171192 0.694804 -0.132671 0.931522 -1.238955 0.703451 -0.387925 0.429788 -0.502315 0.819970 -1.416215 0.156131 0.876849 0.963646 0.465271 -0.943410 1.881903 0.529723 0.145045 -0.834630 -1.002788 1.612049 -1.332392 0.752536 -0.592003 -0.502022 -0.681421 0.091202 -0.054666 
eb11f513-5296-40c2-8ea1-e54038af0f57 0.655031 1.308044 -0.380249 -0.639975 1.023702 1.005248 0.102896 -0.832756 0.479024 -0.576665 0.541076 -1.142274 1.010081 -1.886238 0.092147 1.340044 -0.536594 1.626148 -0.680195 0.910308 1.690631 -0.428468 0.403722 0.217583 0.571485 -0.795143 0.008608 0.039639 -0.441647 -0.760315 -0.388345 -0.410417 
274f4bc5-63c8-4f46-aba1-a409b5e78dd4 0.384564 0.855930 -0.510742 -0.916232 0.622394 -0.843108 0.182684 0.544481 -0.035245 -0.000103 -0.148372 0.556286 1.955074 -0.197067 0.963432 -0.443792 1.627865 -0.052711 -0.105628 2.147231 0.356471 -0.233357 0.857345 1.011836 0.874888 1.303486 1.041157 -0.206411 -0.280612 -0.668803 0.174903 -0.107557 
f8bb40fa-a430-4462-8df9-2ca1f4ab4163 -1.545093 1.426780 -0.795832 -0.024483 -0.006325 -0.761046 0.306978 -2.162797 -0.848238 0.403484 0.103224 -1.363016 1.606328 -1.419271 0.318372 0.149219 -0.356488 -0.064307 -0.141350 1.202498 1.074698 1.057114 -0.200322 -0.586618 1.666053 0.830738 0.702769 1.430708 0.676272 1.153927 -0.755502 0.492409 
48d1c5d5-ab0a-4b74-ad26-a36b0c4a65a8 0.544784 0.445195 -0.329340 0.011643 -0.128510 -1.200673 0.237630 -0.122149 -0.539153 1.722763 0.125082 -0.711535 1.203323 -0.873281 -0.345105 0.196162 0.003538 -0.624805 -0.481316 -0.014326 -0.027192 0.362737 -0.154766 0.388349 1.425565 0.029890 1.620626 -0.548963 1.445058 -0.031834 -1.202999 0.318819 
95667ee0-2821-4ace-9fda-8b8a86628ac3 -0.327010 -0.073634 -0.591831 -0.019071 -0.360562 0.061446 0.454031 -0.881240 0.551481 1.203452 -0.821770 -1.079876 1.029515 -0.704219 0.330812 -0.163663 -0.516424 -0.165423 -1.636385 1.754750 0.067590 -1.377763 -0.929601 -1.065334 0.768382 1.086850 0.689594 -1.141672 2.777495 0.789235 -2.151915 -0.512665 
281f1f2a-9aef-4979-94a1-9cbfab951309 -1.362800 1.694257 0.333224 0.019933 -0.261795 -0.980057 1.342950 -0.250653 -1.768032 0.246907 0.453990 -0.704636 1.769930 -1.751830 0.119362 -0.263873 0.867347 0.816524 0.746142 0.965767 0.805637 -1.280021 1.345417 0.274485 1.808656 0.523965 -0.987589 0.995571 0.276723 0.550501 -0.459651 0.976118 
1c5681bb-12af-4d53-b93b-a4e3f3b16893 -0.267436 0.534120 -0.858506 0.242469 -0.526848 0.355640 0.436527 -1.362246 -1.380440 1.641256 0.393604 0.508814 2.133854 0.712265 0.290746 1.117926 0.572983 -0.740205 -0.850329 1.423758 0.346907 -0.131317 -0.131513 0.640901 0.764582 1.086447 -1.828490 0.753737 1.075344 0.817205 0.853668 -1.394805 
055f65fd-8d9e-413f-bded-e5cad168976c -0.298010 1.030244 -0.428812 -0.918963 0.195926 0.164440 1.529739 -1.453422 -0.567366 -0.502173 -0.001299 -0.316182 2.161535 -0.758293 0.908610 0.643247 1.673391 0.834630 -0.177581 1.153232 -0.220297 0.427928 0.250887 0.976035 0.329224 0.992482 0.138187 0.484000 -0.456473 0.285412 -0.055882 -1.000576 
9e9c2f7e-600b-4144-b376-a6f647d83b37 -0.556191 -0.077637 -0.508620 -0.208895 0.484299 -0.496840 1.945781 0.325749 0.973496 -0.417950 -0.831459 0.455829 0.854146 0.093564 1.059722 1.326807 -0.192911 0.858821 -0.039874 -0.381051 0.654542 0.523423 -0.740290 0.326210 -0.178186 1.765246 0.253666 1.001781 0.621101 -0.265605 -0.640193 0.755797 
90429b50-b9ff-41a4-bcac-2b6f47e1e245 -0.888925 0.297732 -0.885639 -0.622801 -0.010142 -0.164120 2.371471 -0.108602 0.827912 0.975898 -1.033588 0.132247 1.776685 -1.762370 -0.216931 2.066860 1.654978 0.353025 -1.124549 1.813698 0.389955 -1.288171 1.368976 -0.246870 1.070219 -1.686146 -0.035654 0.042526 -0.064331 -0.716931 -0.244112 -0.204922 
34bba9ba-118e-4b54-aecf-be6dc3250780 -0.439686 0.206917 -1.905320 0.940192 0.412837 -0.929903 0.468137 -1.225438 -0.499223 -0.890342 -1.812717 0.242703 0.671974 -0.029042 0.440452 0.761520 0.196961 0.564665 -0.302310 -0.214008 0.990467 -0.732535 0.751105 -0.327952 1.161173 1.154297 -0.404015 0.022805 0.173365 0.223640 -1.000827 -0.726679 
16549b10-4a99-452c-9d8c-3c348724b6f0 -1.754656 0.326763 -0.777418 0.065326 -0.671564 1.258580 0.387166 -1.354086 0.308790 -0.266565 1.454236 -0.961243 2.179748 -1.558253 -0.264982 1.147659 -1.090375 1.001956 0.250696 -0.121260 0.277527 -0.030340 -0.781118 -0.132045 -0.317102 0.855665 -0.249707 -0.385659 -0.929596 0.225491 -0.493973 -0.315127 
056a7e65-4f96-4556-96c6-d81b429f5547 -1.210933 0.987232 -2.074229 0.272562 0.844977 -1.542317 2.362286 -0.483789 0.069033 1.531963 0.444735 0.174543 1.085731 -1.652112 0.708631 0.028911 0.531925 0.744087 0.244095 -0.266864 -1.050237 -0.305438 -1.127412 -1.535191 -0.173046 0.762766 0.950247 -0.484973 -0.452355 0.222333 1.039496 0.262084 
cd26749e-ef04-471e-b3da-5f86f8dea027 -0.723880 0.111773 -0.637730 -1.495549 0.256055 -0.400701 0.167678 -1.220216 -0.663759 -0.276251 -0.024106 0.811576 0.181384 -1.540599 -0.556009 2.244506 0.285357 0.640601 -2.152138 0.882152 0.312674 -0.547820 0.372664 0.006847 0.841571 2.276135 0.279892 0.256390 0.700712 0.241214 -0.436272 0.161513 
1da7b078-90b4-4312-b652-7d57182adfd0 -0.727355 0.491720 -0.489697 -0.156184 0.060774 -0.921472 1.124274 -0.853774 -0.749668 0.220426 -0.854373 -0.612794 2.018070 -0.238790 0.428451 0.522053 0.287629 0.986580 -1.066874 0.440432 -0.109344 -0.523630 0.855858 -0.955543 1.081525 -0.159803 -0.236969 -0.376358 -1.334988 0.967767 -0.557770 0.740198 
14ec9cf5-0403-4054-b9d5-179d6b0d7b35 -0.844676 1.031670 -1.275205 0.000297 -0.136323 -1.059013 0.811068 -1.063792 -0.225293 0.956354 -1.091688 -0.546064 1.153681 -0.449211 -0.109823 -0.131834 -0.141998 -0.352861 -0.605568 1.105064 1.460041 -0.817208 1.010822 -0.521640 0.168729 -0.278131 -1.001225 0.732118 -0.787181 0.104862 -0.632811 0.832895 
9ae027b4-bb14-4b2c-96a5-f08500c56683 -1.791170 -0.472962 -1.047378 0.891225 0.718862 0.982394 2.344518 -0.866665 -0.041877 0.350182 1.293657 -0.317607 1.230583 -0.485105 0.985134 0.431658 1.206977 -0.244981 -0.864802 -0.076818 -0.137803 0.534073 0.726616 -0.307476 -0.923578 0.986593 0.750573 0.556713 1.515385 0.840390 0.503235 -0.314522 
32fa7355-c311-4319-bf0c-0ae0afca11d9 0.048999 0.450176 -2.249758 -0.530253 -0.576310 -0.764631 0.657001 -0.464830 -0.715105 1.259529 -0.334768 0.305121 0.790121 -1.049318 0.419281 0.504901 -0.971119 -0.311704 0.272660 1.816957 -0.731487 0.041754 0.815445 -0.406506 -0.324044 1.554968 0.331423 1.105640 -0.764880 1.013791 -2.188860 0.277381 
c6efef6d-386a-4e3e-91d5-75885730a941 -2.000354 0.929703 -0.261591 0.561984 -0.634101 1.084294 1.700568 -0.499495 -1.873517 0.596706 0.107541 -0.505624 0.868530 -0.234598 0.006988 -0.393756 1.171380 1.332053 -1.080720 -0.110004 0.536200 -0.624565 0.141779 -0.488429 0.541393 0.442330 0.577280 -0.352974 -1.362073 -0.091444 -1.428476 -1.084555 
cd435abb-a4a2-4cdb-9212-effea254834d -1.015828 -0.739418 0.867989 0.834142 1.650384 -1.338846 1.861181 -1.559072 -0.302419 0.779015 -0.019580 0.332272 0.426558 -0.157374 0.377779 0.347285 0.569476 0.219439 -1.858963 -0.595833 -0.710823 0.413808 0.600284 -0.365822 0.810825 0.441498 -1.035145 0.544107 0.055133 -0.115976 0.510662 0.666333 
2854dd77-1f25-4f13-95de-a05c915dc1ea 0.163419 1.292183 0.881106 0.831113 1.690596 0.511500 0.995268 -1.033131 -0.218668 -0.567796 0.144553 -0.212265 0.243914 -1.380289 0.106295 -0.831061 -1.241793 1.540913 -0.497982 -0.164368 0.436937 -1.316807 0.321065 0.410981 1.134363 0.163684 0.945954 -0.050087 2.401063 1.308335 0.150416 0.486984 
281375b8-4a1a-4707-91f8-07ac2b2ace63 -0.409751 0.470754 -1.193113 -0.561017 2.071249 0.530932 -0.705254 -1.254349 -1.378567 -0.585443 -0.526425 1.659557 1.622196 -1.589647 -0.403146 0.090947 -0.662457 -0.976256 -0.022108 0.248959 0.535129 -2.214519 0.295139 -0.124106 0.356399 0.933187 0.980350 0.529922 0.965729 0.242178 -1.558775 0.651582 
d6f6a2be-071b-421d-b507-f9a8718e26bf -0.748047 0.754669 -0.371296 -0.946388 0.377216 0.640888 1.027908 -0.738670 -0.397166 -0.516473 0.114312 0.223668 2.720480 -0.284119 0.482398 1.851648 -0.174035 1.303901 -0.206844 1.213796 -0.599681 -0.355056 0.978791 -0.500918 0.802557 2.042013 -1.970170 1.303736 -0.850283 1.213547 -0.730122 1.220947 
44ef3f41-6354-4fd7-bad0-c3d0168b7868 -1.534759 0.413573 0.892262 0.641850 1.014922 0.176444 0.024079 -0.823352 0.009715 0.365952 1.077722 1.481364 1.942445 -0.645937 0.245998 -0.569337 0.296889 -1.963842 0.741619 0.966537 -0.112749 -0.466387 1.635142 -1.226947 0.995609 -0.117118 -0.975629 -0.142589 -0.188678 1.373407 0.056486 0.259391 
206bd91b-a14c-4a36-b96f-4806a4c68ee0 -1.558909 -0.167334 -0.481882 -0.255115 -0.342210 -0.702194 -0.369532 -1.534035 -0.209525 -0.537499 0.388702 0.178158 1.511388 -1.703266 1.554736 -0.047448 0.347477 -0.215271 -0.451692 0.533662 -0.303949 -0.307028 -0.801855 -0.536842 0.203659 0.562944 -1.149882 -0.368386 -0.401442 -0.145217 0.187973 0.831675 
baf5c22c-a5f1-4b90-af8f-d71be3387552 -0.932978 0.674629 -0.338280 -0.831600 0.568444 -0.819621 1.060235 -1.383822 -1.483584 -0.293956 0.136973 -0.599972 1.422532 -1.152176 -0.454820 0.672593 -0.748528 -0.578900 -0.555069 -0.506206 -0.422939 -0.492633 -1.080618 -0.642685 0.237580 -0.847286 -1.544161 -0.009446 1.287459 -1.497454 -0.982621 1.134336 
8c6b4e45-e340-403c-b58a-45cc092dab69 -0.764158 0.547274 -1.304785 -0.055655 -0.619838 -0.226867 1.930294 -0.261918 -0.624433 -0.670071 -0.443563 -0.009600 0.251921 -1.255687 -0.139419 1.689636 -0.440253 -0.160917 -1.826522 1.032169 -0.997082 0.161098 0.700724 -0.843010 -0.275540 -0.323758 0.152054 -0.444939 0.869612 -0.914259 0.870078 -0.577880 
b618861b-90ef-4c01-be35-c9df398accba 0.608021 1.057226 0.043680 0.278296 0.163993 -0.450145 0.936805 0.808480 -1.411671 -0.000216 0.596863 -0.137062 1.516607 -1.504798 -0.230644 2.078959 -0.020348 2.506295 -0.364959 0.118974 0.535999 0.933181 -0.022872 -1.409020 1.050565 0.967210 0.677743 0.661723 -0.480301 -0.431885 0.563061 -0.370352 
c1d7cad4-2ded-46ff-b238-bfa24da78040 -0.262200 -0.297387 0.065432 0.251084 1.570539 -0.515712 1.148755 -1.683356 0.617638 0.035559 -0.893664 -0.556344 0.518191 -1.189203 0.037935 0.801428 0.595074 0.380312 -0.652702 0.168862 1.415533 0.236410 0.334002 0.761127 0.336741 -0.320726 0.420264 0.382129 0.165637 -0.261221 -0.407001 -0.365016 
3b6304a3-a0f2-4fe1-b6a9-dc41463ab848 -1.153544 0.284264 -0.277460 -0.846878 0.736632 0.838974 0.997778 0.066686 1.708931 -0.141750 1.001650 -0.177202 1.098994 -0.436811 1.218206 -0.104749 0.500697 -0.550679 0.221591 1.512714 -0.091199 0.533753 0.824792 -0.660923 0.396975 -0.030387 -0.966887 -0.302884 0.084949 -2.019342 -0.148487 0.034869 
15f682bf-4a50-45c3-a351-dc38743ae870 0.564654 -0.607393 -0.332184 0.442575 -1.230867 -1.415003 0.758189 -1.353411 -0.383615 0.501122 0.210843 -0.860496 1.523639 0.546961 1.006291 0.795126 0.986902 0.963410 -2.694648 1.546893 -0.692714 -0.274654 -0.262769 -1.204759 1.147573 -0.098667 -0.924277 0.282708 1.527345 0.724757 -0.559390 1.941279 
7efbbd3b-c736-4d09-a478-6407a6ac1dc0 0.457320 0.274191 -0.274554 -1.089557 -0.575133 -1.281614 0.700192 -0.669371 -1.002827 -0.394297 -0.315019 -0.829744 1.100308 -1.332179 -1.401227 1.070798 -0.664642 0.681639 -1.330313 0.422987 -0.119098 -1.323958 -0.397271 -0.157204 1.099819 -0.302155 1.085478 0.282958 0.486661 -0.301464 1.176259 0.370814 
e11c68bc-0f18-46a3-bdad-1bc72094ebca -0.104175 1.924431 -1.359944 0.246857 1.305427 -0.643714 1.213696 0.182086 0.141844 -0.496626 -0.853266 -0.386469 1.831957 0.767371 -0.945046 0.505229 0.021291 0.242211 -1.476067 0.756473 2.138664 0.141518 -0.413237 0.163765 -0.222227 -0.041467 0.593750 -0.268394 0.203534 0.477792 -2.338442 0.210172 
02cf16c0-6410-404a-9686-be3181836567 -1.142549 1.123945 -1.938910 1.082545 0.416733 -1.570293 0.212185 -1.010090 -0.165559 -0.404359 0.385828 0.943180 2.758198 -0.614365 -0.678516 0.971119 0.442910 1.854808 -0.516160 0.351126 -0.115338 -0.452021 0.218402 -0.533626 -0.313361 0.818748 1.005738 0.715974 0.598295 0.802860 0.459593 -0.581352 
fe8dc242-29c5-4847-81e5-a61ad845439e -1.297690 0.356353 0.034559 -0.065732 -0.996513 -0.862789 1.666406 -1.145044 -1.571522 -0.133882 0.660109 -1.380387 1.366498 -0.204172 1.359070 0.803813 0.755095 0.382887 -1.615664 1.284503 -0.988150 0.076351 0.823827 0.360034 0.978409 0.306945 1.445921 -0.067251 0.157735 -0.290712 0.073643 0.839280 
b257d5d5-6a53-4a93-ba34-5afa1be3afbb 0.961320 -2.007893 -0.617628 -0.186760 -0.469500 -1.186188 0.386537 0.438571 2.327608 0.397141 0.255926 0.130182 1.833855 -0.869352 -0.642498 0.896175 0.548064 1.220394 -0.854031 -0.307657 0.699179 0.626899 0.245405 -1.158260 0.460474 -0.094704 -0.617770 -0.623057 -0.367762 0.984011 -0.773165 -0.102652 
e1dcf391-2d76-4405-a4bb-67bf5be4a04a -0.580969 1.338594 -0.554358 -0.714811 0.601997 -1.443634 1.645155 -1.205641 0.355731 -0.598722 -0.819535 -0.332241 0.051568 -1.225680 1.279212 0.470723 0.027516 -0.225264 -1.371619 0.152717 1.658004 0.901762 1.267124 -1.151287 2.585757 0.903082 0.384644 0.498170 -0.622934 -0.681027 -0.937286 -0.783768 
40a9452e-f6d9-416c-adbb-1bda033dcabc 0.214000 0.231334 0.085729 -1.233019 -0.330584 0.108400 0.730862 0.117713 0.186721 0.556205 0.575960 -0.398735 1.612409 -1.306501 -1.949249 -0.062626 0.896626 0.916439 -0.643163 0.581471 -0.229560 1.517636 -0.577873 0.266871 -1.225319 0.295347 1.012602 -0.649927 0.659052 0.720365 -0.188596 -0.699268 
68c87217-1cfd-4a3b-8938-6d5a8a634f26 -0.178207 -1.183571 -1.482399 -0.213383 -0.462280 -1.344223 2.471524 -2.286160 0.894403 1.026195 0.290266 0.156508 1.187687 -0.508541 0.255146 -0.251987 1.195802 -0.645009 1.633096 2.489227 0.149735 0.179197 -0.747824 -0.599087 1.249941 -1.084678 1.465765 -0.681820 1.599375 -0.953125 -0.079065 -0.146562 
9196465a-cc35-4591-a1c1-d93bc868bf4e -0.526414 -1.697089 -1.639740 0.154946 1.014878 -0.948830 0.584717 -0.303576 -0.746592 -0.822159 0.142670 -0.692835 0.614418 -0.404437 1.024428 0.651301 0.048861 0.513697 -0.620140 -1.441967 0.213106 -0.827107 0.547527 -0.663546 1.036554 1.128314 0.753075 0.584376 0.822939 0.624353 -1.651524 -0.729243 
f49d75ae-3996-429b-ba9c-5b62e1e00f85 -1.311453 1.169901 -0.201258 -0.840673 -0.762696 -0.716373 1.542091 -1.042324 -0.005309 0.617951 0.392890 0.245839 0.315519 -0.512794 -0.053941 0.610196 0.195913 1.333645 0.669714 2.023189 0.604988 -1.203047 0.486579 -0.588334 1.072535 0.853336 -0.305463 1.077671 -0.288677 0.714792 0.104395 -0.791797 
1206396e-f62e-480c-9ae9-87048ec11eb6 -0.991141 -0.053741 0.666861 -0.802810 0.047690 -0.315482 0.340183 0.344856 -0.286489 -0.365476 0.525313 -0.783573 1.677697 -1.964769 1.631346 0.514694 -0.148248 1.898031 -0.390812 -0.960243 1.017354 -0.079319 0.929652 -1.031852 1.021297 0.148094 -0.160576 -0.196218 -0.105139 0.681215 1.690780 0.790918 
fd8572ab-17a7-41bf-9696-dd693c65f16e -1.289646 0.000518 -1.779425 -1.840590 -0.506429 0.017802 2.855303 -1.071759 0.865335 0.543738 -0.981223 -0.869497 1.854046 0.183169 -0.195887 0.291223 0.415418 -0.187958 -0.147374 0.663474 0.717902 -0.824038 -0.525850 0.059852 1.255254 0.152770 -0.281487 0.263330 0.536572 0.649310 1.130234 -0.899429 
192431b5-eeee-440f-aa2b-2474c14f4751 0.169342 0.059229 -1.200195 0.803654 -0.485284 -2.566565 0.329906 -0.651481 1.025303 0.029228 -1.169691 -0.480764 0.756927 -2.069437 -1.203356 0.655135 -0.753012 -1.000836 -0.827781 0.263656 0.889837 0.058482 -0.767879 -0.298692 2.760561 0.879448 -0.233190 1.423960 1.317535 0.549972 -1.395733 -0.987860 
f017bf84-361e-472e-9bb9-2484ba7d0d72 -0.084967 0.394177 1.917418 0.510692 1.527311 1.607362 -0.537517 -0.396982 0.712052 -1.367493 -0.489309 -0.009041 1.191753 -1.105771 -0.604667 1.630650 0.062403 -1.300726 -0.986934 1.359766 0.045640 -0.663369 1.638110 -0.388376 0.986059 0.328632 -1.181221 1.412565 -0.768164 1.471293 -0.138449 0.948408 
fdb03a1f-493d-4588-a8f0-92975e22b8e9 -0.563950 1.579241 -1.083527 0.014531 1.198958 0.370340 1.729782 -1.111942 1.057750 -0.000981 1.934150 1.191866 1.096736 -0.186401 0.338874 0.311241 -0.848559 0.429038 -0.660378 1.328456 1.217659 -0.896656 0.493759 0.500900 -0.209735 0.146887 -0.818945 0.056370 1.021729 -1.792492 -0.773110 0.859460 
592a0f96-9331-4673-a588-f8785144e70c 1.229885 0.032863 -1.310848 0.467445 0.465558 0.755561 1.785059 -1.747460 0.267688 -0.027765 0.000161 0.103744 -0.437738 -1.668057 0.583584 0.880473 1.249464 0.213002 -0.863548 0.715176 0.698346 0.386408 -0.062278 -0.960831 1.326166 0.421597 -0.537630 -1.546387 -0.220786 0.726558 -1.180677 0.388421 
ba83b256-1fe6-4858-8e00-f0d9ffc0dbc4 -0.755732 2.417973 -0.795956 -0.112228 0.192837 -0.067096 1.322047 0.722489 -0.751385 -0.019014 0.836032 -0.031937 0.833632 0.598787 0.244128 1.400297 0.517261 0.892434 -0.460333 1.284632 0.721557 1.089594 0.673164 -0.341050 1.171108 0.235828 -0.274424 -0.712360 1.785231 -0.921364 0.170295 -0.069279 
602e1e74-d43b-44a5-9fda-57fbd638f6f3 -0.496336 1.539658 -1.248724 -0.521170 -1.101531 -2.506557 1.442268 -1.180088 -0.697023 0.975350 0.625381 0.523032 -0.106494 -1.492291 -0.583746 0.078491 -0.833397 1.018092 -2.052793 0.751657 0.802350 -0.574637 2.360722 -0.315686 1.281750 0.084357 -0.181310 -0.297130 -0.875455 -1.312834 -1.478821 -1.873900 
85f524cc-381f-47e9-8eb1-53490677be93 0.273158 0.435987 0.169408 0.603839 -0.641627 -0.072702 1.111246 -1.538466 0.096541 1.432734 0.181517 0.187255 1.903435 0.035762 -1.197781 -0.492191 0.546521 0.818464 -0.786390 0.151415 1.402821 -1.663648 1.394619 -0.453709 -0.421880 -0.206752 -0.205239 -0.065057 0.936881 -1.252807 0.975850 -0.487176 
273bc61f-58ce-46f9-887b-00bf391ea839 -1.658495 0.194420 0.047525 -2.028320 0.670856 0.216486 -0.581990 0.755631 0.927020 -0.073511 -0.119693 0.218858 -0.036969 -0.058233 1.185633 0.760747 0.731643 -0.724026 0.264565 2.308385 0.048160 0.523978 -0.677638 -1.231899 1.268112 -0.602457 -0.606594 1.238921 0.509792 1.241266 1.241295 -0.270548 
14051df6-6085-4827-b26e-166b8e5c16f5 -0.082108 -0.067171 -1.749076 2.223992 2.259060 -0.823886 -1.364287 -1.483942 -0.420174 -1.585805 -0.064907 0.688298 1.650386 -1.301431 -0.664398 0.632706 -0.284171 -0.072920 -0.679596 -0.387857 0.811556 -2.099006 -0.613098 -0.198516 0.955259 0.265313 0.620300 2.243577 1.832278 0.356876 -0.414152 -0.530604 
2f645668-8547-41a3-832f-0b4df47c25a1 -0.484871 0.042862 -0.672486 1.587596 0.710412 0.606323 -0.094807 -1.504248 -1.749106 -1.675946 -0.823154 0.776459 1.751316 -1.196041 -1.539044 -0.323016 0.953817 1.852703 -0.892805 1.155264 1.387909 -0.792703 0.236251 -1.348381 1.524566 1.702072 2.004156 -0.313635 1.368616 0.418917 0.269124 -0.394833 
03c20d20-d3e7-4196-b19c-d0466807722e -2.066111 0.263381 -0.706841 0.184839 0.197842 1.056800 1.081724 -1.577674 1.170352 0.316188 0.323146 0.714346 2.068467 -0.754507 -0.660467 -0.929637 1.341978 -1.089792 0.148493 1.273611 0.406686 -0.041009 -0.323237 -0.723264 0.191199 -0.030905 0.264269 -0.927125 0.175768 1.383343 0.904033 -0.435777 
e1cb69e2-01a3-4e0c-80ed-2b52395ee888 -1.260298 0.256526 0.280209 -0.189656 -0.131565 -0.761797 2.537278 -1.825122 -0.196975 -0.654956 0.289018 0.033736 2.545967 -0.702088 0.746739 0.444781 -0.075743 0.695381 0.102714 0.391461 -2.121044 -0.051895 1.650169 -1.121138 0.283314 -0.324554 -0.921800 0.797989 -0.510552 -1.158722 -0.202571 -0.302672 
b8fc07f0-dae1-4f44-86c8-5d72f21485f2 -1.579737 -0.762003 -1.254916 0.435098 -0.682021 -0.158371 2.731222 -0.002989 -0.493345 0.091056 1.021761 1.456434 -0.180778 -0.764911 -1.256360 0.792509 0.647722 -1.229118 -0.061510 0.624506 -1.870563 -2.479208 2.300595 -1.364729 0.163385 -0.033539 1.760355 -1.399129 0.416949 -1.430737 -1.260047 -0.622962 
94713132-d58f-48a4-abaf-f12fd9c29435 0.655034 -0.411210 0.112170 0.293856 1.261279 -0.588406 1.219194 0.228563 -0.076503 0.758741 -0.991836 -0.084737 0.911512 -0.149333 2.113499 0.293722 -0.414779 0.362228 -0.572765 -0.202797 0.898980 -0.681475 -0.563224 0.312950 0.705598 0.454619 -0.228053 1.385275 1.060112 -0.072069 -0.897685 -1.052276 
aa8a611e-25d5-4d00-8914-eecb8daca72c 0.389652 0.398707 0.946153 0.051728 0.115642 -0.018512 0.669077 -0.199439 -0.045334 0.920276 0.727923 -1.615975 0.579067 -1.113551 -1.841706 3.182298 -0.124140 1.433212 -0.975432 -0.555460 -0.352407 0.252147 -0.442897 -1.403475 0.334760 1.387232 -0.655454 -1.492566 0.260899 -1.424283 -0.021604 -0.668417 
fbd714e4-e4fb-4e99-9ec0-643bce45e98e 0.798405 0.269357 -0.742056 0.232165 -0.659798 -0.273815 2.202847 -1.643529 0.294218 1.709746 0.036333 0.182007 1.171493 -0.183140 -0.681026 1.883572 0.002717 -0.292152 0.709301 0.875725 -0.157789 -0.604525 0.418506 0.574665 -1.409415 0.351492 0.255051 -1.889404 1.722079 -0.534684 -0.572525 -0.187690 
33603aad-ad36-4f9b-87bf-57a323de1802 -1.083605 1.899946 -0.889036 1.502880 -0.113519 -0.869411 1.421474 -1.519960 -1.523718 -0.163588 -0.004819 -1.970205 0.671960 -0.911446 0.289095 0.502346 -0.268511 -0.833115 -0.892492 0.755435 1.452228 0.470994 0.192357 0.852909 0.793712 -1.126884 -0.052604 0.465915 -1.029108 -0.184714 -1.639272 0.747167 
6cdb40bd-8c0c-499f-80a2-6b00b2a315b6 -0.289572 -0.485320 -0.984550 -0.153467 0.095578 -1.557506 -0.203884 0.275099 0.312854 0.643887 0.582227 0.020411 -0.480035 0.116654 0.042987 0.992961 -2.019645 -0.421747 0.486601 0.540844 1.313321 -0.047321 0.307685 -0.451879 0.552247 0.349105 0.976466 1.623526 1.920680 -0.105435 -0.973385 0.072580 
dab8ca53-3a6d-4f9f-b858-69ad7bc6980f -0.928355 -0.688445 -0.450202 0.899529 -0.724285 0.439733 0.625411 -1.649602 -0.077122 1.571049 -2.550276 -1.434952 0.232045 -0.577638 -0.453352 1.036109 -0.824559 -0.959958 -0.004340 1.011130 0.311510 -0.591159 0.466247 -1.339527 0.413737 -0.430213 -0.280879 -0.410886 1.826623 0.356662 -1.711125 -0.131116 
7a0dee77-2901-4eda-b62c-bd738a608857 -1.545769 -0.066724 -1.282300 1.660066 0.094102 0.124798 0.394177 -1.796049 0.081217 -0.000321 -0.378592 -0.581608 -0.798924 -1.413985 1.803419 -1.261126 0.431523 0.154107 -0.587039 0.967526 0.222407 1.188197 -0.038946 -1.812259 0.497930 1.659937 1.259174 -0.443695 2.312175 0.639666 -0.783662 0.032965 
f4a28ccc-e451-44a4-982d-4efcd5cdd26a -0.263948 0.467142 0.546907 -0.361033 0.783808 -0.146566 0.680354 1.135038 -0.961141 0.807961 -0.436090 0.504414 -0.656421 -1.438822 -1.288571 0.587743 1.160022 0.290967 1.200394 1.976176 1.022676 -0.565458 -1.491372 -1.046249 1.357471 0.081926 0.478908 -0.241122 2.193982 -0.748691 0.547879 1.673126 
01254ba3-227f-481c-becf-0042e082d6e9 -0.786995 -1.410997 -2.572437 0.136964 -1.210036 -0.591421 -0.390853 0.703469 -0.251861 0.275977 0.079195 0.915090 1.391713 0.006173 1.029521 -0.727614 2.010265 -0.607542 -0.249449 1.653263 -1.583896 -0.377725 1.869082 -2.361552 0.567570 0.474292 -1.112333 -2.148105 0.715527 0.597212 1.310932 -1.116460 
ed616196-a628-431c-8719-0956ed8fc6a8 -0.734340 0.376187 -1.724597 0.904559 -0.263553 -0.666816 2.124271 -0.075211 -0.730628 1.063865 0.541056 0.001200 1.389299 -1.106380 0.145182 1.965799 0.322858 0.345621 -0.307872 -1.404414 0.963858 -1.348068 1.008007 0.180032 -1.077690 0.820614 0.929690 -1.275370 -1.426680 -0.716434 0.268156 -0.212383 
4f5595d0-8024-4c12-bb4a-ff9b11a73b2f -0.201632 -0.038416 -0.331909 0.823148 0.366344 -0.523427 0.576292 -0.123685 -0.226023 0.692883 0.715619 -0.209728 2.123060 0.140158 -0.595777 -0.196063 0.102999 -0.847456 -0.638682 0.553413 1.266387 -1.162793 -0.632256 0.074350 0.734425 0.894136 -0.369884 1.090248 0.561212 1.405911 -0.093798 0.780890 
f254cd79-a6ed-47c8-8bf5-1e82e70488f0 -1.673306 0.172518 -2.491257 1.566285 -0.151369 0.980712 1.652260 -1.689936 -0.447779 0.660588 0.624418 -0.672909 1.484944 0.534587 -0.165788 0.622879 0.868341 -0.918846 -1.360873 0.659245 1.343469 0.501017 0.491659 -2.103359 1.432865 -0.949567 -0.956212 -0.008602 0.571202 0.363934 -0.530404 0.624855 
53f284b1-ec0e-4489-8a18-a5e2bd5b5b99 -0.477035 0.147257 0.870506 0.290977 -0.571623 0.809571 0.643048 -2.009802 0.149066 0.477377 -0.953529 0.428332 1.013230 -2.170245 0.101485 -0.257621 0.182840 -0.355022 -0.560857 0.264562 0.703392 -0.757013 1.389520 0.060038 -0.563016 0.417007 0.244074 1.809053 1.336748 0.174839 1.106208 0.877477 
15e42146-9438-45aa-a7b3-6be44376facd -2.127675 1.475580 -1.201627 0.812901 0.606794 -1.293195 -0.225152 -0.971687 -0.627164 -0.456167 0.869362 0.861916 2.667850 0.037304 0.332404 -0.373621 -0.599264 1.464956 -0.400155 0.475581 0.118735 -1.813104 0.292969 -0.288063 0.765234 0.476090 -0.526198 -0.388308 -0.347103 0.119379 -0.645941 -0.327980 
1aee0ff3-d983-4886-b4e6-083cde19e369 0.341766 1.536532 0.543300 0.186041 1.276493 -0.019735 0.682784 -0.125633 -1.460233 -0.987956 -0.420893 0.087225 -0.141550 -1.250953 -1.202223 -1.437594 -1.123572 1.200426 -0.287109 -0.144531 -0.542996 0.638455 0.321822 -0.650024 0.441544 -1.186824 0.330333 0.174496 2.287249 0.015039 -0.780630 -0.473867 
5c0e7157-79b4-4c55-a930-2cfaba671843 -0.422384 0.437867 -1.078576 -1.647199 0.248299 -0.099992 2.211373 -0.187570 -0.059607 1.414039 0.479877 0.241992 3.151529 -1.518702 0.184434 0.436172 1.580560 0.290797 -1.297153 0.782405 1.161596 -0.010031 -0.860851 0.308322 0.993851 0.691735 1.283846 -0.147985 0.591714 -0.656846 -2.022666 1.424370 
260ba9bb-e3ea-464c-b9c2-1293e2f710db -0.603121 1.241871 -0.568222 -0.362870 -1.879230 1.348616 1.169768 -0.311613 -1.025256 0.840575 1.360983 1.206708 0.363402 -1.502583 1.817684 2.106626 0.263098 0.752551 -1.636123 0.735337 -1.511748 -0.390893 0.689614 0.204580 2.021580 2.025892 -0.114103 0.780933 1.025132 -1.848487 -0.027551 -0.449640 
230040d4-04f4-4b7c-8944-f2529ef3425f -1.124623 1.864585 -1.460217 1.989779 0.204874 1.967483 0.074765 0.282950 0.973785 -1.235641 -0.515030 0.060570 0.933721 -2.194520 0.172103 -1.245814 -2.768831 1.013703 -1.002457 0.838514 -1.488365 -1.734699 1.555861 -1.342300 0.589406 -0.690667 0.895946 1.210779 -0.270571 0.530079 0.001310 0.293985 
5c587d20-e615-4eb4-8748-3499c708f1f5 -0.745438 0.040279 -0.820647 0.584305 0.177543 -0.250001 0.462616 -0.785310 0.197318 -1.999211 -1.760647 -0.512037 3.421634 -0.676061 1.396911 -1.442832 -0.946866 1.254106 -0.273740 -0.499616 -0.763994 -1.843701 -1.305963 0.215323 -1.106247 -0.163978 2.258651 0.340214 1.189756 1.638863 -0.006456 -0.663978 
305dbb48-c20b-4210-a6e7-635e63589aa9 -0.034107 1.662258 -0.137414 -0.565267 0.587055 1.040234 0.353618 -1.510003 -0.078426 0.941187 -0.062162 0.139385 0.589843 -0.363469 -0.614245 1.276523 -0.784371 0.929250 -2.315590 0.500990 -0.713307 0.154523 0.421272 -2.560551 0.086452 -0.026825 1.119201 0.614271 0.874748 -1.803054 -0.236117 2.015102 
6e886364-340d-45e4-bb80-8fa370771900 -1.335632 1.392346 -0.386813 0.281819 -0.442877 0.021165 1.621974 -0.784482 1.073177 -0.063947 0.802140 -0.665223 0.884931 -1.026164 -0.891412 0.678972 -0.398871 0.053387 -0.641965 -1.037302 0.628097 -0.228617 1.672980 1.203278 1.387401 2.147501 -0.266704 0.698203 -1.927262 -0.881718 0.732926 1.066477 
529a22e9-6a81-412e-a272-821590dba4cb -0.400936 0.024909 0.305807 0.208099 0.117789 -0.404140 1.850564 -1.520916 -0.861896 -1.273390 0.191344 -0.564153 2.196562 -1.889930 -0.871135 1.383835 -0.374576 1.313452 -0.729184 -0.011696 0.224100 -0.088911 1.128316 0.191801 0.570317 -0.310181 0.534718 0.277544 0.561883 -1.908177 0.467373 -0.637915 
83ac2aa8-e593-46f9-9bd6-1d2204dcecb7 -2.909459 1.489492 -0.292527 -0.452994 0.258923 -1.112030 0.757800 -1.062082 -0.486289 -0.690378 0.855394 -0.387426 0.273497 -2.658657 0.206403 -0.411146 1.238070 0.185284 -0.177059 -0.296745 2.179250 -1.809194 0.051296 1.007883 1.374346 -0.267622 -1.207629 1.594768 0.296158 0.491742 -0.165097 0.281350 
ccd8e1e4-1c07-4bdb-8631-1649c54507f1 1.012662 0.266192 -1.411388 0.021169 -0.894205 -1.921902 0.326660 -0.900672 -1.327130 1.504662 0.721451 -1.109939 1.429213 -0.360310 0.235788 1.056686 1.080560 1.311911 -1.281243 0.038765 -1.138246 -0.944054 0.244832 -1.904631 2.151348 0.374121 0.935853 -1.732631 0.266635 2.060422 -0.559874 -0.613698 
7625d2b2-5f60-436e-a095-9c2e1d5c0a3b 0.838938 0.142976 -0.600653 0.089204 0.562810 -0.548649 -0.451239 -0.645237 -0.168713 -0.111384 0.078995 0.216591 1.980349 -0.999405 -0.924869 0.402519 1.380684 -0.766380 -0.599868 1.945114 0.499333 0.228321 0.636355 -1.683242 0.230460 0.925095 -1.161051 -1.503460 0.295195 -1.911973 -0.071307 0.479310 
bd968728-f1e1-4f45-8ee1-5964a60963e7 -1.338376 0.774040 -0.594839 -0.130819 2.202061 -0.442279 1.380212 -1.670033 -0.662726 0.075087 -0.214155 -0.321949 0.291325 -1.120867 -0.742754 -0.520514 0.652239 0.270827 -2.427027 -0.776298 -0.540970 -0.475177 0.737907 0.679814 0.428562 0.020361 0.512766 0.785981 -0.210126 -0.659493 -1.117755 -0.187030 
7d3018c1-e024-4e52-8291-2bc2f8023571 0.474320 -0.620777 0.695456 1.031265 0.487515 0.424024 0.704660 -1.202284 0.323790 1.568448 0.920587 1.103588 1.265615 0.371636 -0.152111 0.584119 -1.035547 -0.207186 -1.042149 -0.103989 1.820702 -1.927767 0.849771 -1.170860 0.350776 -1.006991 0.262960 -0.137688 0.250922 -0.122525 -1.557626 1.253470 
5755a928-1fa4-40b4-86f5-6cf0f6a16db4 2.259155 -0.833674 -1.715417 -0.361969 -1.311124 -0.522090 -1.185037 0.425014 0.422555 1.174048 1.106674 -1.061558 1.649059 -0.246408 0.792813 0.956198 0.684848 0.482469 -1.098814 1.895755 -0.267774 -0.555940 -0.619134 -1.566969 0.499396 -0.500910 -0.732748 -0.659042 0.404406 -0.145435 -1.613492 -0.423946 
5dddfe92-beba-48be-a71a-9a2e7f3ef749 1.052959 0.778407 -0.211351 -0.300456 1.367666 -1.126778 2.972057 -0.973910 -1.369742 -1.218265 -0.392954 -2.277294 2.013383 -2.570880 1.649662 0.204415 1.027417 0.290614 -1.466522 -0.038258 0.294356 -0.219452 -1.825116 -0.578519 0.185010 -1.279352 -0.337275 0.440029 -1.087544 -1.480724 -0.646959 -0.591365 
5ca2f30d-ad36-4fdf-9b52-e0f347127688 -1.648315 1.738898 -0.385881 -0.393666 2.326047 0.134023 0.625584 0.653168 -0.008401 2.057196 -0.333460 -0.094814 0.099328 -2.395302 -0.493984 0.515419 0.509943 -0.899062 -1.308712 -0.178455 0.372069 -0.732002 1.412607 0.701045 0.261169 -2.431685 -0.339493 0.052298 1.550571 -0.669945 0.188048 0.872762 
11b2306e-9333-4591-9dfa-c85287398d43 0.425850 0.029409 -0.010154 0.280761 -0.443332 -0.489580 2.593373 0.532675 1.500507 -1.549150 -1.789177 0.943872 0.469552 0.263714 1.210833 0.635816 0.195466 0.609188 -0.996871 3.045812 0.358571 -0.354300 -0.419008 -0.858745 0.080009 -0.054488 0.147861 2.112534 0.979784 0.619499 -0.212443 1.606274 
5a6f1ff6-ddda-49f4-a0d7-f4f70fb1a1b3 0.821912 0.147853 -0.102109 0.059445 -1.415343 -0.334141 1.849370 -1.527630 -2.275977 2.178770 -0.024455 1.262733 0.377334 -0.252002 -1.933744 -0.184645 -0.013836 1.252170 0.933320 1.321636 -1.843638 0.080164 0.372683 -2.033232 0.486799 -0.078312 1.068906 1.353948 -0.804069 -0.942137 0.201211 0.183966 
6ff3532a-2942-4720-8b30-246b05164667 -0.622636 2.535297 -0.269952 1.754439 0.462256 -0.768316 2.090316 -0.134719 0.611111 0.700821 -1.000147 -2.101697 0.215437 -2.408705 -0.471191 0.814339 -1.052055 -0.864697 -0.407205 -0.165757 -1.715901 1.043750 1.708607 0.196652 1.924627 1.005619 -1.368711 -0.508754 -0.335644 -0.567663 1.187917 0.029217 
872ca4b8-8bdc-49e0-9309-a16c046c07bd -0.069164 0.111267 -1.342612 -1.303462 0.033475 1.760211 0.897819 -0.981457 0.131934 -0.626078 -0.301670 -1.952979 0.829278 1.110639 1.875768 0.607892 -0.022509 -0.709334 -0.760638 3.351806 1.363286 -1.175348 -0.621565 0.281221 -0.603100 0.289961 -0.306125 0.787252 -1.187492 -0.068657 1.620390 -0.827749 
da700541-bda9-4e13-891b-5483a2eb273b -0.925582 1.301002 -0.017928 -2.209137 -0.381211 1.758526 -0.173263 -1.096230 0.738259 1.366988 1.950251 -0.427949 1.346534 0.295675 -1.709899 0.846882 -0.479295 1.414296 -1.462671 1.263361 -0.683088 -1.763728 1.477132 -1.981734 -0.570158 1.638118 1.584673 0.396555 0.997762 -0.775861 0.575973 -1.122356 
5daefa6e-74e6-4fe0-9165-dc28a5471ee1 -0.717941 1.556603 -0.784679 -1.197115 -1.255764 -0.071878 2.337527 -1.512440 1.150611 -1.719091 0.140059 -0.207472 0.364172 0.083514 -0.071256 -1.444751 0.532197 1.033329 -0.640338 0.914184 0.425830 0.276138 0.843042 -0.240878 0.202222 0.221537 -0.975207 0.000667 -1.450649 0.037271 -0.707427 -1.212203 
842a5c28-b370-490d-9bb6-66ebf7be4c13 1.207911 1.144735 -0.520581 -0.912386 0.675904 -0.421561 -0.356144 0.498373 1.247936 1.494893 -0.814642 2.355007 0.170599 -0.682035 -1.616876 -0.665739 -0.794844 -0.588167 0.073111 -0.305403 1.234976 -1.233406 1.078672 0.544999 1.905265 1.288651 0.694133 -0.431509 2.890681 0.395182 -1.301965 0.192150 
43470035-d3dc-4617-acfd-12d1d5aa5a69 -0.450355 0.577072 0.973149 -0.708935 0.869269 -0.635081 0.850070 -0.876129 3.141844 -1.051178 -0.174552 -0.655404 0.150109 -2.267669 1.335078 0.667825 2.261163 -0.225426 -2.209925 0.571599 -1.362076 -0.643113 -0.068284 0.108262 0.124122 2.209819 0.513357 1.330050 0.192843 0.295123 -0.932521 -0.164501 
a1fbcca7-a0e8-4a1b-97b7-e7c75346ec9a -1.357102 -0.344631 -1.420291 -1.393533 -0.404627 -1.439812 1.642742 -0.803788 0.002126 0.359006 0.497820 -0.127967 0.584701 -0.326089 1.555981 -0.221083 0.678237 0.347640 -0.444748 1.637804 1.575179 -0.625322 -0.874846 -0.126674 0.681390 0.983546 -0.737753 -1.113208 0.263824 -0.040163 0.365678 -0.278388 
cc524d80-aab6-498f-8bc0-39fada427bfc -0.905750 0.752573 -0.961522 0.209362 0.405930 -0.544183 2.844782 0.092893 0.005312 -0.231403 -0.101693 -0.060703 0.425894 -2.556852 0.101834 0.038957 3.230467 -1.039601 -0.464508 -0.261975 -1.323131 -2.515997 1.391275 -0.635432 1.940115 -1.574062 -1.564062 0.267417 1.330853 -1.213243 0.699920 0.004159 
608decc5-ff4c-403e-af7d-ad9dc1491cc4 -0.705555 1.735469 0.280274 -1.145200 0.398948 -0.778772 1.850883 1.876146 -0.393226 2.877762 0.684914 -2.920012 1.815343 -2.341105 -0.163195 0.578432 1.920942 -0.125609 -1.341029 -0.734776 0.954467 -1.756674 0.585097 -0.054246 1.338676 -0.077308 0.277376 -0.259136 -1.046171 -0.666191 -1.658152 -0.155852 
10827320-2cfc-48c5-b91a-b322eaadd487 0.361102 1.499840 -1.035076 0.215857 2.328982 0.114105 -0.546947 -0.054778 -0.802869 -0.687344 0.463112 -0.208141 1.874132 -1.292222 -1.862963 0.861463 -0.670429 0.503163 -2.356297 -0.382824 1.279637 -2.350925 0.373303 -0.532732 -0.322979 -0.612658 -0.864835 -0.356845 0.328730 1.512102 -0.812585 1.985221 
40409d45-0219-4936-93c8-81857ecdc37f 0.964575 -0.266443 0.112728 -0.686278 0.195922 1.226059 1.678088 -0.889650 -1.063580 0.063754 0.302368 -0.018848 -0.466739 -1.709567 0.991388 0.281815 -0.490896 1.390525 -2.852054 0.974637 1.293848 0.666447 0.287840 -0.210360 0.546531 -0.269440 0.823561 -0.828524 0.956366 0.675943 -0.351353 -0.470148 
f6a63e89-bf45-4d4f-b7ef-75149cac1c05 0.152095 0.409183 1.258255 1.675434 -0.887627 -0.617909 1.194971 -1.291448 0.523224 -0.330928 0.128042 2.715762 2.887354 -0.146367 -0.178279 -0.331061 0.430249 0.614795 -2.031887 1.740937 0.272107 -0.212470 0.761944 2.098229 -1.216242 1.584816 -0.129961 -0.710287 1.054302 -0.440538 0.893211 -1.223632 
1c889ded-336b-4313-8aeb-e1d8c0b26211 -1.708656 0.267561 0.737804 0.291340 -0.085370 -0.620976 0.404894 -1.088929 -2.295479 1.197899 -0.551640 -0.360009 0.543698 0.557149 -0.951657 -0.256714 0.430312 0.101539 -0.627878 1.332816 0.810598 0.096857 -0.125429 -1.620583 0.679675 -0.010111 -0.802459 -0.121203 -0.370415 1.369608 0.021154 2.129511 
192c60e5-81ae-40a4-b916-b3514c36fd0e -2.674509 -0.584212 -2.871007 0.444324 -0.887243 -0.524016 1.548540 -0.608755 1.021541 0.316256 1.138476 -0.753614 2.623635 -0.445853 0.781178 1.365661 -0.510554 -0.999833 0.726207 -0.038151 -0.674081 -0.328283 -0.663694 -0.363337 -1.349358 0.878084 2.433110 -0.448273 1.112927 -0.223188 -1.304920 0.458567 
24b1b115-07e9-4d8f-b0a1-a38639654b7d -0.252084 0.606371 -1.232494 2.501120 1.653583 0.270850 -0.339460 -0.531555 -0.817206 -1.348389 -0.013544 1.612919 1.192950 -0.514342 -2.220100 0.486499 -0.197891 -0.034224 -0.393886 1.532157 -0.097218 -1.503919 0.211000 -0.482346 1.200896 1.794678 0.524869 0.945811 1.140733 0.075689 0.584794 0.464145 
80a641dd-f9a3-4484-ba6e-466ceda111f1 0.608313 1.318998 -1.991770 1.096972 -0.574958 1.903518 1.848617 -1.293405 -1.158596 0.065533 -0.518327 0.043458 0.650123 -0.398199 -1.335394 0.997851 -0.801220 -0.121125 -1.490875 0.706505 -1.245848 -1.158227 1.288717 -1.615392 0.856921 -2.001013 -0.272792 1.103207 0.736757 -1.020384 -1.068422 -0.395733 
5a26d9b8-5145-4302-9dc0-c9ec66098023 -2.014771 -0.418922 -0.540642 -0.469116 -0.532517 -1.301552 2.521689 -1.283607 -0.574489 1.531059 0.219017 -0.024270 1.862015 -1.848796 -1.525667 0.618199 0.359080 0.125233 -2.322532 0.496343 0.734608 0.515421 -0.491508 -2.640662 0.694268 1.289872 -0.936467 0.421419 0.540674 -0.309126 -0.490379 -0.077461 
ff48c5bd-b853-4793-8ac3-f84ce34e5bb1 1.068339 2.654513 1.180166 -0.040484 -1.203313 1.026200 -0.673171 0.159052 -0.319873 1.375840 0.660410 1.546991 2.462810 0.153164 1.492544 0.338121 0.105616 -0.464164 1.971669 -0.278449 -3.069620 -1.795475 2.545355 -0.375165 1.636499 1.362876 2.849471 0.119709 1.638422 1.607021 0.243197 1.347429 
dd9f05d9-8fe0-450d-801f-3c92b4c0f3d7 0.229794 0.198018 0.734373 0.116829 -0.293767 -0.437959 0.524723 -2.278466 -0.333303 0.157364 0.455240 0.821655 0.929806 -1.830212 0.258248 1.585721 -1.436136 1.034807 -0.745246 1.270049 -0.221438 0.520167 -0.398824 0.947537 0.994795 -0.905727 -0.801135 0.820408 -0.940159 -0.649080 -0.735728 -0.469249 
a3cbb7de-1b3c-4071-9ab3-a03380934956 -1.946764 1.859507 -1.473391 -2.485085 1.539242 -1.359358 0.934056 1.109824 0.801871 0.432676 -0.888609 -0.169209 1.132490 -0.003085 0.682000 -0.274577 -0.156474 -0.210856 -2.266906 0.668536 1.582306 1.681706 -0.973789 -0.577143 0.931978 1.366680 2.502271 -0.387908 0.222996 0.830036 0.130028 -0.241377 
bca933b2-a736-4649-ac15-4ecf35c05ce7 -0.559693 0.315102 -2.093961 1.124835 1.294187 -0.583588 -1.905671 -1.920744 -0.221383 -1.450623 0.726290 -0.484616 -0.032826 -0.070674 -0.099832 -0.696605 -1.717048 -1.620626 -0.108366 -0.339453 -0.372959 0.017603 -1.252881 1.602412 2.299980 0.766600 0.210193 1.154779 1.385350 0.517684 0.857647 1.395575 
bd9bb31b-eef4-4cbb-ade7-b434d81624f2 -0.534590 1.670335 0.139477 -0.931403 0.386067 -2.103101 -0.054470 -0.025434 1.180534 -1.283029 0.770118 -0.587047 1.336323 -2.461061 2.096336 -0.323595 -0.439049 0.488881 -0.328656 1.778569 0.181281 -1.148417 0.663868 1.741532 -0.740564 0.847886 -0.245878 0.860674 0.602863 -0.876129 -0.282631 -1.116555 
aea1aee4-9242-4988-be9c-66ad02dab9c4 -2.467849 -0.104109 -1.988712 0.738074 -0.523128 -0.432524 0.217869 -2.779885 -0.490508 -0.947089 -0.102228 -0.486355 2.253038 1.310010 0.867137 1.275080 -0.526560 -1.700703 -0.527096 1.831057 0.313784 -1.254334 0.657937 0.401750 2.287330 -0.044404 0.930732 -1.471012 1.214871 0.460579 -1.706636 1.189128 
25b507d6-354a-4873-b12d-1d1aceea7de9 1.017355 0.679831 -0.578806 0.108051 0.574889 -1.343477 1.530723 -0.918695 -0.380031 -1.237918 0.049411 -1.034632 1.079521 -0.592416 0.414574 -0.411976 0.134351 0.030964 0.132295 1.363425 0.599884 -2.113862 1.501274 -0.730048 1.823769 0.334790 1.145819 -1.024767 0.244829 0.023909 -0.793238 -1.383062 
ba1cb102-c98e-4a03-8cb4-812c1d456b15 -0.567879 0.104763 -0.556421 0.413131 -0.999911 0.232453 3.110771 -0.514285 -1.031677 -1.038291 -0.206969 -0.461060 -0.743093 -1.322976 -1.065481 0.473488 -0.468166 -1.710822 -0.379933 -0.501948 0.137932 0.432531 1.068877 -1.438518 0.879292 1.950332 -0.341338 -0.262045 0.914066 -1.138227 1.208034 -0.455831 
718b502d-b594-41b7-b4be-a2686a679501 0.867634 -1.411399 -0.930407 0.032990 -0.609218 -0.473153 1.437770 0.852013 -0.515293 1.715863 -1.362409 0.061527 1.810806 -1.457429 0.564238 0.652986 -0.885449 -1.240044 -0.533000 1.077188 -0.250620 0.235358 -0.237797 0.209429 2.064880 1.053949 -1.541718 1.940638 0.798233 -0.156366 0.156524 0.695216 
8a74c413-ea76-4e6e-b860-898d6941943d -1.163505 -1.531288 -0.468713 0.751166 -0.732368 -1.876482 2.726192 -1.131632 -1.594253 0.353049 0.536591 1.131188 1.331609 -2.764483 -0.993157 -0.430197 1.229858 -0.902245 -1.354397 0.318330 -1.707017 -0.971299 -0.567774 0.701206 -0.436429 -0.716763 0.232154 -0.308399 -0.015784 0.235022 2.888863 1.646771 
87803d26-c6b6-4a39-95d3-1693916f1c5c 0.502596 0.629481 0.775229 -0.113900 -1.117486 0.287962 -0.444991 -0.196254 -1.013481 -1.941260 2.336588 0.388233 0.856843 -1.445366 1.025198 0.150218 -0.250961 0.001954 -1.406481 1.579777 0.563639 -0.978514 -1.138299 -0.600295 0.891000 1.002557 0.012430 0.942839 0.195857 -0.040775 1.528424 0.175220 
aab7481f-951f-407d-a6dd-2c4fd68c623d -1.133210 2.045082 -2.037142 1.507238 -0.293757 1.088306 -1.022465 -2.219732 -0.088654 -0.800927 3.414999 0.155459 -0.287362 -0.055037 -0.020078 0.838596 0.296332 1.086398 -0.349549 -0.026681 -0.806550 -0.676424 -1.493389 0.193440 2.551898 1.205362 -0.545338 1.336217 1.120796 -0.459785 0.173745 2.102732 
41abbb69-5739-41f8-9e90-135c510a77c8 -3.221418 2.215037 -1.175142 1.055768 -2.227342 0.450249 2.151106 0.199522 0.452144 -1.066062 1.214447 0.760872 0.992699 -1.599078 2.160894 2.195338 0.012277 -1.403362 -2.402445 -0.941029 -0.743579 -1.176115 -0.929562 -1.407017 -0.267161 -2.584309 0.512091 -1.247370 1.951637 -0.775329 -1.606712 0.777624 
4229bba3-93aa-415c-85fb-94586c1b64a4 -1.293528 -0.284251 -0.414492 0.396987 -1.647951 0.996269 0.207890 -1.048966 -2.372654 -1.807435 -0.835222 0.370943 -0.098142 -1.577814 -0.796714 2.001768 -0.498103 -1.636850 -0.126226 2.619488 0.850933 -0.291846 -0.438161 -1.421327 1.970525 1.785956 0.496318 1.387089 -0.960961 0.219373 -1.443845 0.356465 
41302869-f590-4389-a0e6-dec63f095e66 -1.515305 2.555722 0.199804 -0.626372 -0.945667 1.516970 0.738102 1.195113 0.528441 1.806803 0.810843 1.239668 2.454989 -1.897812 1.655296 0.824963 -1.204911 1.065706 -0.459013 1.938963 1.586361 -1.825857 -1.323336 -1.161244 -0.603926 -2.178745 0.255710 0.167302 -0.117538 -1.793328 -0.664657 2.393947 
90707722-5e0c-4cb8-b88e-f1e0e92d9cc3 -1.914492 1.330806 -0.750488 1.169597 0.162243 1.714369 -0.353081 -2.259214 0.172680 -0.734909 0.856217 -0.306737 2.591375 -0.691260 -0.843148 -0.054245 1.268380 -0.296752 1.291090 0.887999 -0.910364 -0.642464 0.797704 -0.359189 0.784161 0.732549 -1.223118 0.034899 -0.089238 0.526387 0.423745 -0.052700 
04c7dad3-657b-4fb6-8df9-a4cc3fb30408 -0.175788 1.089762 0.514247 -0.434949 1.185499 -0.262494 -0.598450 0.973363 1.389154 -0.858558 -1.815175 0.834060 0.805333 -0.328228 -0.484511 1.482159 0.459126 0.438353 -2.197595 0.490115 0.155955 0.309679 -0.755142 -0.301648 -1.053693 0.953252 0.908544 -1.718169 1.358685 0.097612 0.180097 0.333008 
38866059-8efa-458e-8c98-db8eb2cb25b9 -0.187872 0.561789 -0.787359 0.985220 0.651127 -1.445890 2.591548 -1.209165 -0.025043 -1.286195 0.361479 -0.346273 2.740137 -0.099035 -0.274931 -0.611011 -0.958365 -0.658689 -2.151129 0.106086 0.252870 -0.828679 -0.222326 -1.867910 -1.702913 -2.076216 -0.850977 -1.306135 2.647449 1.664483 0.997080 -0.136745 
c24670c3-528c-4fc6-97ec-5225dcd2cf97 -0.242337 0.203169 -1.084560 0.938532 1.115630 -0.035133 2.482389 0.273383 -1.054475 -1.907009 0.333252 0.286885 4.351129 0.114234 -0.164870 -1.001802 -0.885374 0.263107 -0.883302 -0.210025 -0.065437 -1.229182 1.516048 0.300389 0.602108 -0.569209 1.987904 0.268922 -1.233616 -0.173806 1.436876 1.069580 
d4df7610-25ee-45eb-93ff-faaebbd642d6 1.020274 1.808997 1.932486 0.150560 -0.892363 -2.029443 1.618538 -3.719201 -1.233053 0.647949 -0.949774 1.773562 1.089154 -0.135550 0.546000 -0.153095 -2.473254 0.086363 -1.939449 -0.673870 -0.403553 -1.676362 2.103965 -1.197514 -0.096746 0.479412 -0.433671 1.369959 0.954839 0.516200 -1.102968 -1.043842 
7428d124-42ca-4a19-a71a-caac7dcda795 -1.387149 -0.733036 -0.590812 -0.105097 0.306764 -1.999268 0.986846 0.050473 0.197005 -0.316336 1.642191 -0.244006 1.216455 -1.402795 -0.038423 1.293251 -0.363514 -0.522646 -0.962491 0.522471 -0.992948 2.186013 -0.086001 0.318169 -0.036973 -0.360024 2.066511 -0.534788 -1.241811 0.156749 1.312290 1.117499 
0714ebd6-cf56-4403-b96c-47bf915ab746 1.280833 0.097013 -1.037706 0.840625 0.426287 -0.916469 1.258212 0.010251 0.470316 -1.458922 -0.176102 -0.258605 1.048816 -0.505246 -1.131836 0.920184 0.669450 1.596952 0.399613 0.427357 -0.174461 0.576609 1.484233 0.139861 3.771236 0.583036 -0.244708 0.854443 -1.005719 -1.970810 -0.394022 -1.222240 
1ebda96e-6d23-46bb-9838-c6898d7b3567 -1.678954 0.454985 0.791277 1.442633 0.049462 -0.468850 3.659202 -1.468633 0.051784 1.027331 -1.562568 -1.478666 -0.075269 0.522689 -0.921904 2.161144 1.171071 -1.414823 -1.371766 1.458021 -0.668152 -0.724296 -0.572440 -1.862925 0.349567 0.640452 0.247938 0.788709 -0.476879 -2.306985 0.663421 0.549687 
6acd34fa-738d-417f-a27a-a1348e82fb8f -1.632329 -0.712195 -1.462773 2.553781 -0.346953 0.950806 0.566883 -0.838950 -1.775952 -2.046812 0.386441 1.220575 1.304571 -0.311152 -1.840288 -0.871325 -1.735563 -1.673819 0.976972 0.125445 -0.181340 -0.002409 0.067844 -1.876464 0.056650 -0.153781 -1.212069 -0.699695 0.009388 -0.771635 0.660302 -1.121161 
bc65a314-be11-4432-815c-c6b2104b72ff -1.376496 0.926351 0.003517 1.511575 -0.650703 0.366101 2.095170 -1.230372 1.065412 0.897004 -0.315232 1.285245 0.712845 -0.170609 -0.823628 0.317905 0.009551 -0.335543 -1.558358 -0.201311 1.648558 0.751193 -1.516710 0.175737 0.668269 1.037624 -0.122924 1.169423 0.131237 1.034527 1.074151 0.943071 
ae3a741f-8c13-481b-885a-8a36702a9510 -1.665742 -0.707838 -0.015545 -1.806286 -0.802971 1.574943 0.604862 0.122915 -0.878606 -0.460650 1.534263 1.653328 0.876275 1.830338 -0.011417 2.502214 -1.122488 -1.541651 -0.702465 0.515421 -1.021911 1.188781 -0.522409 -1.965760 -0.159187 -0.622962 -0.906650 0.925238 0.716116 1.616085 -2.072357 0.175615 
4ba1df7b-af3b-480a-9002-b7905cdca170 0.506790 0.968796 -0.443645 -0.922661 -1.641757 -1.779586 -0.311826 -0.548804 -0.701479 2.192019 -3.017544 1.374448 0.071957 0.403412 1.025185 1.593245 -0.492996 -0.562757 0.874087 1.670515 1.301421 -2.259737 0.491870 -1.164204 0.411842 1.541153 2.157087 -0.333012 1.993780 2.401474 -0.442874 -1.267405 
d780ce78-642e-4e71-8825-040e53fc4278 -1.621318 1.648699 -0.631636 -0.218488 -1.324823 0.875248 1.201168 -1.039643 -1.653598 -1.748368 -0.293419 -1.150262 -0.511047 -0.948406 -0.252021 0.517627 -0.120446 -0.195227 -0.823019 1.351221 -0.010902 -1.048661 0.670346 -0.951765 0.258669 0.342174 1.638370 -2.162035 0.156830 -0.806198 -0.240784 -1.166856 
b4c272ef-4822-4e6c-aaae-e6beecc346e9 1.016193 -0.212999 -1.243257 0.009948 0.681818 -0.056531 1.112754 1.362536 -0.385150 -0.606284 -1.485982 -2.946783 0.273537 -0.521002 1.087555 -0.330977 -0.369508 1.761205 0.179047 0.066761 1.629743 0.937550 -1.302986 1.246759 0.243815 -2.335233 0.126257 0.463770 -1.285114 -1.462000 -0.029759 -1.877922 
3f1738df-1f6c-4485-aa14-09816ee10f33 -0.454891 1.798761 -0.746547 0.196851 -0.473130 1.021578 1.878598 0.314818 0.173099 1.500375 0.034152 0.025171 0.648485 -0.829757 0.549112 1.326464 1.091792 0.396638 -2.129036 0.847335 -0.415522 -0.587968 0.135939 0.075689 0.984248 0.666424 1.215795 -1.665383 0.438450 1.954966 -1.118561 -1.083852 
f33c0c2d-9fdd-492b-923e-944df39eba27 1.438514 1.059304 0.910941 -1.243414 0.982259 -1.002813 0.728219 -0.809708 -1.002836 -0.450656 -1.224419 -1.092437 0.800002 -0.731599 -0.543446 0.587388 -2.263591 -1.711205 -1.992554 2.119211 1.184642 -0.357777 1.064993 0.217762 -0.156426 0.663362 1.075668 1.510737 -0.612774 0.145570 0.474984 1.445046 
88e1d6df-5401-443d-a38f-96de08104438 1.196955 0.604532 -0.920243 -0.792702 -0.034509 0.087382 0.523628 -0.098667 0.496803 -0.342358 -0.104956 0.357621 2.863152 0.066070 0.582207 0.017047 0.277419 -0.123815 -0.253517 0.134727 0.612867 -1.965601 1.584991 -0.809630 2.181410 -0.788041 -0.582312 0.619903 -0.593966 -0.908954 -0.329244 -1.228670 
815e6585-4b70-43b3-918f-c158c13c1a23 -2.941582 -0.041392 -1.575733 -0.235944 -1.001421 0.200750 -2.310564 0.085823 0.010467 -0.106868 0.389326 1.781987 0.160418 -0.717304 1.115894 1.540534 0.666864 -0.692353 -0.833267 1.096306 1.549232 -3.549831 -0.476663 1.670912 0.709077 0.927094 -0.678478 0.210205 -1.253545 0.515577 -1.193228 0.635173 
949a463b-6e38-422b-8dc8-49d12a0f1dc3 -1.027488 2.552160 1.457137 -1.914250 1.470315 -1.071983 -0.090991 0.066099 -0.788195 -1.337827 0.265361 -2.024784 1.634290 -0.698607 0.000986 0.682328 -0.404997 -2.248771 -1.047649 -0.162101 -0.824626 -0.488430 -0.976360 1.051955 0.213953 0.154782 -1.061078 -0.155372 -0.963003 -0.428379 0.035507 -0.716202 
17ac32aa-ec29-4873-9090-7510e946807d -1.809018 0.020536 -0.324061 -2.143523 0.410578 0.581932 0.972811 2.444106 2.801902 2.753049 1.738003 0.973910 1.181343 -0.018122 -0.402321 1.574098 -0.098386 -1.757442 -0.818721 0.189530 0.844436 2.569343 0.664456 0.307931 1.592945 0.135166 1.061954 2.758451 -0.612938 0.504013 -0.547860 -0.904789 
7c959d0a-9982-4507-b5ad-0ddc08ee3b65 1.361292 -0.157632 0.107693 0.736468 -0.618187 0.112395 0.723269 -0.273256 1.235743 1.468651 -0.394778 -1.775793 2.367422 -0.642287 -0.903402 0.899451 1.429101 1.357622 -1.640473 -0.788276 0.216608 0.400820 -0.606616 -0.597346 0.779928 1.488053 0.137581 -1.402876 0.223889 -0.543111 1.405481 -1.335028 
1a78cd84-975c-45ed-be6f-f51b24c29e50 0.345989 -0.558055 -0.328135 -0.353373 -1.124701 2.623121 1.874771 -0.940984 -0.265197 0.748076 0.231026 0.013298 0.960641 -0.919169 -0.072991 0.094161 -0.127550 1.325476 0.055988 0.596011 -0.508232 -2.658128 0.246246 -1.108130 -0.100199 0.362241 1.003939 -0.964955 -1.783096 0.404538 0.715268 1.894256 
1ed9ac97-5f35-4606-96d6-0cb452148fc9 -2.794586 1.177986 -0.046566 0.149473 -0.267059 0.685668 1.432531 -1.034597 1.011836 1.159049 -0.536542 -0.901653 -0.406555 -1.582992 -0.841435 0.418358 0.106408 0.021771 -0.125460 0.019635 1.024691 0.795292 0.534108 1.860650 0.394054 0.051702 -0.358485 2.002041 0.876879 -0.701895 -0.076716 1.785909 
d281c4d9-c759-4164-b4dd-7f3c829cf9be -0.164903 0.378994 -0.062416 -0.243105 -1.407063 -0.614395 2.126746 -1.443412 -0.136762 1.501217 1.538283 -0.462699 -0.027142 -0.371286 0.345348 -0.083845 -0.210870 0.215280 -2.133130 1.160747 -1.846222 2.134400 -0.705186 -1.710613 -0.173837 -0.175313 -0.067743 -2.312102 2.690541 -1.474839 -0.428153 0.000369 
7ce189a4-f1ec-4401-8886-8d66f7faf330 0.783797 1.236151 0.549138 -2.288619 2.475669 0.954444 0.383865 -0.697661 -0.606085 -0.243840 1.915511 1.360134 0.079741 -1.853090 -0.164915 -0.024881 0.834849 -0.680234 -0.383565 1.275239 1.482946 -0.852210 0.889606 -2.515499 -0.636086 1.030745 0.253427 2.590550 -2.065795 0.155403 1.249674 -0.026498 
06d682eb-b3b3-47a3-8f77-e462681fa7f0 1.558259 -0.615288 1.403354 -0.936635 0.064608 -0.137642 1.372968 -0.918701 -2.224243 0.483127 1.730900 1.080119 -0.607259 -1.269481 0.146072 3.456773 1.387139 -0.524083 -0.683489 -1.851568 0.827756 0.456606 1.649617 0.077288 1.862112 -0.676301 -2.064845 -0.702321 0.210417 0.299063 -0.871879 1.121398 
038ae6fc-b83c-42d3-a4ea-e2209da0321e 0.805498 0.896592 -1.291024 -1.815521 0.325432 0.303950 -0.276450 1.531055 -1.226570 -1.423355 -0.482567 -0.594484 2.699189 -1.216107 -1.106125 1.380969 1.511747 0.988160 -0.551882 0.210313 0.119367 1.011207 1.152412 -2.777899 0.500010 0.160141 -1.044535 1.564938 1.140005 -1.408475 0.948421 1.179289 
361f4b3b-b1ab-4983-af67-3f538d256872 0.884204 0.743894 -1.472922 -0.144333 0.693817 -2.872092 0.883364 1.505561 -0.246330 2.051020 0.001801 -0.647449 2.173341 1.570901 -0.211968 1.189060 0.109472 1.724811 -1.728237 0.930954 0.551243 0.090567 -1.215361 0.259005 1.709396 -0.325903 -1.500360 -1.558885 -0.297961 -0.203033 0.617942 1.939203 
e51504bd-3c0c-438f-beb4-0503a883e12f -2.933882 1.497470 -0.817722 1.245636 1.219385 1.282831 0.548051 0.129731 -0.507200 0.902164 -0.428182 -1.412042 1.186852 0.342212 1.210983 0.238862 0.999241 -0.070683 -0.767318 -2.244164 1.082113 -1.670269 1.023226 -0.581272 2.774257 -1.304933 -0.291249 -2.625366 -1.368050 0.480103 0.649876 -1.023898 
4d74f756-108c-4b59-8b61-cf3a4201782f 0.655350 0.026214 0.438809 -0.837168 0.172253 -0.767563 -0.068098 -1.672733 -0.159148 -1.610896 -0.449934 -0.891099 1.328965 -1.286866 1.985353 0.023672 -0.824463 2.003578 -1.282839 -0.452390 -0.205162 0.664219 -0.462963 -2.077201 -0.809322 -0.211736 -0.999186 1.918786 2.624344 -1.308299 0.301033 -1.477352 
da30e1a7-b7bb-4ac5-be8d-7e9b8289786b -0.831567 1.208713 -2.171706 1.382320 -0.041849 -0.068551 -0.492173 1.283059 -1.338241 0.725354 -0.379170 -2.346919 -1.379027 -1.126748 -0.383316 1.041860 2.041340 0.142585 -1.273454 2.198385 0.471732 -1.538620 0.342057 1.872872 0.961169 0.519780 -0.418693 -1.509735 1.486312 -1.319383 -1.392002 0.314632 
6108c167-a9d2-4ffc-83a7-32d66e0244b0 0.151632 -1.379519 0.148043 1.668674 1.606943 -0.434466 0.499779 -1.362453 0.074919 2.186748 0.457449 -0.388857 1.361008 -1.808371 0.073302 -0.732337 -0.337971 -1.917317 -2.431385 0.095327 -0.761431 -0.660543 3.270267 -0.590655 1.317822 -0.443341 -0.794839 0.184992 1.802678 1.736555 0.938115 1.433587 
0ca1f99b-efe9-46e0-bfbf-29fe1d18ef4a -0.092706 -0.932099 -1.081673 -1.875283 -0.936558 -0.958255 0.854902 -0.628174 0.919954 0.227913 -0.448417 -0.996449 0.897646 0.137834 -0.205811 -1.114915 2.049217 -0.855333 -1.583452 1.643140 -1.453300 -0.718999 0.157117 -0.796666 -1.207701 0.547290 0.833774 0.448875 -0.342076 0.495937 -0.662626 0.148077 
c71bc666-ccbb-473b-b8e7-7fd0279baefe -1.548052 -0.198906 -1.786844 -1.393443 2.192628 0.095416 0.188709 1.310506 -0.783683 0.741676 -1.088978 -0.691869 0.530925 -0.086786 -0.820652 0.301161 1.566812 1.011238 -0.143826 0.657931 0.795459 -0.696926 1.823162 -1.691367 -0.004723 -0.264731 -0.866583 -0.154951 -0.047028 -0.700918 0.966498 0.931437 
ee8652a8-e8ff-41a5-a46f-84b2c3b1bab8 -0.323612 0.135038 0.384787 -0.692664 0.606061 1.120963 -0.319228 -0.466009 -2.437631 1.760776 -0.940576 -1.904085 0.402100 1.737487 -0.957678 1.121909 1.403685 0.803136 -2.747489 -0.107182 -0.602815 -0.472040 0.648026 1.105976 2.282323 1.977126 1.022820 -2.169371 1.275803 0.330748 -0.715305 -0.180841 
e80f0641-2a9b-4ffe-95fb-6a13ebb318a4 -0.788673 1.074116 -1.292765 0.462519 0.176812 0.420388 0.754978 -1.110586 1.201901 1.042587 1.768549 0.322314 0.089834 -2.811033 -1.690429 -1.004009 -0.297520 0.005051 -1.430775 0.471657 -0.851611 -1.267119 -1.525658 2.379138 -0.192166 -1.654811 -0.172141 -0.108869 -1.163670 2.070628 -0.360884 0.742026 
987622e2-6a0c-4d3b-9138-c306b965999c -0.062700 1.813238 -0.075766 -1.489312 1.288428 -0.478390 1.325509 -0.222988 -0.922682 0.337382 0.440130 -0.124793 2.538119 1.675920 -1.487363 -1.815798 0.502704 0.774567 -1.970073 0.118065 -0.252230 0.402002 0.591240 -0.390923 1.207391 0.726991 0.288271 -0.309646 0.474039 1.558652 1.634373 1.510969 
7e13d7d5-fb19-41b5-b8dd-e59e8ba4bef4 -0.842187 -0.686545 0.926080 -0.936641 1.837963 3.479964 -1.079366 -0.632370 3.880153 2.015136 0.315830 2.414991 0.476485 -1.131876 -1.857465 0.207048 0.317282 1.758424 -2.003019 1.715409 -0.954877 -0.651873 1.322342 1.208458 1.212300 1.787373 -1.650592 1.090049 -0.380174 1.355922 0.715555 2.235986 
9764d644-7b46-4f8d-abf6-3842c347ccd8 1.177827 1.912514 -0.195234 1.361644 -0.008520 -0.675496 2.693914 -3.397810 -0.386585 -0.325676 -1.065974 -0.459461 1.256993 -1.593907 3.154542 0.199169 2.690258 -1.935052 -0.773606 0.246325 -0.320167 0.931649 -1.175145 1.303223 0.418239 0.774208 1.145001 2.066055 0.665947 -0.215952 0.620184 2.689458 
9a0410d2-6cdb-4f2c-b491-db00b65fa446 -0.179132 0.080481 0.734858 0.897289 -0.215438 0.297038 1.099994 0.344740 -1.450690 -0.964807 -0.164837 0.264996 1.338225 -0.296426 0.658542 0.682565 -0.170976 0.919317 -1.561542 1.420549 0.695788 -1.166989 0.648790 0.118996 1.966183 0.575904 -2.011122 1.460495 -0.928478 1.447054 1.008694 -0.838267 
c275593f-24d8-4495-b1c4-eb1d1989d4a9 0.067040 0.596791 2.217856 0.622532 -0.693835 -0.549103 -1.733851 0.080176 -0.309163 1.961748 0.120540 -4.193742 0.505313 -1.690565 0.238669 -1.816714 2.577506 -2.120673 -0.686980 -0.585442 -1.318822 0.883119 -0.667446 1.917341 1.036591 0.793753 -0.646454 -0.593291 -0.814757 0.855353 0.507787 3.265860 
a87f12d0-279a-40f9-9b0e-3e30fcccd9c6 0.143995 0.871195 2.164465 -0.244478 1.159712 1.668541 -0.127896 -0.226600 -0.139675 -0.800767 2.125572 -2.381784 0.239132 0.470989 1.575519 2.905975 0.301034 -1.935448 0.330043 -0.756376 0.137219 -3.624499 1.179549 -1.321985 -0.218678 1.035263 -2.110003 2.333408 -2.793908 1.322179 1.009642 0.164460 
a9cfdf02-5bf5-411f-87b4-68170ffbbf08 0.043479 1.046090 -0.932082 1.282980 0.675252 -1.044371 0.856398 -1.212693 -0.675300 0.050449 0.510622 0.030703 1.469726 0.631861 0.902391 -0.613511 -0.907306 -0.686920 0.024789 1.278929 -1.469619 -1.711354 -1.410133 -0.324566 2.346848 -0.077660 -0.788582 1.456806 -0.563644 1.426666 -1.554148 -0.931117 
47fab0f2-50fa-419d-afff-8e8856e42af1 -1.085365 0.763744 -2.587814 -3.148832 -1.638548 -1.506180 -0.096442 0.156786 -1.145792 1.393474 0.452729 -0.201263 1.325432 0.057341 1.253823 1.592046 -0.587887 0.393838 -0.582272 1.899453 0.151963 -0.499498 0.074509 0.565642 1.998785 0.312386 -2.113182 0.897407 0.727114 0.819123 -1.923886 -1.012760 
35674f77-3701-4236-a898-2b353d4de564 1.694533 -0.335822 0.540310 -1.865158 -1.724094 -0.107409 1.249430 0.636342 -0.981714 1.201582 0.949841 -2.456894 -0.640567 0.731688 1.149625 0.692147 0.597902 3.580394 0.368917 -0.308482 -1.282962 -1.062799 -1.958743 -2.891047 2.154469 -0.012139 0.888601 -1.771747 0.032234 -0.590232 0.168871 -3.376513 
c1cb3da7-5639-4ea9-ad16-58a9f892f4c5 -2.484434 -0.019145 -4.918776 -0.533922 0.766839 2.456992 -0.079180 0.944049 1.367783 -0.532393 0.504962 -1.920331 1.477337 -1.227057 1.522208 0.960495 -0.248689 2.939245 -0.002332 -1.550968 0.331818 -0.672939 1.991644 0.342749 0.208658 -0.343378 -0.442945 -1.354922 -1.263122 -1.355224 -1.422501 0.204653 
bc9b471b-e6a5-424b-8a85-31ac623d7ed7 0.238689 2.220387 0.965808 -0.684999 -2.200406 1.567652 0.128559 -2.812610 -1.539306 0.134988 1.906162 0.692938 -0.444811 -0.390686 -0.211414 0.616550 1.899621 2.769586 0.700233 0.271447 0.510945 -0.146325 2.163463 0.371269 -0.722162 -0.241255 0.870001 2.246937 -0.657234 -0.214455 -0.372794 0.865723 
1f73c48e-fe2d-4dbe-b62a-3a45d9096c83 -1.534174 -0.310060 -0.897686 -0.539168 -0.773678 0.292608 -0.251954 -1.313712 -0.954176 -1.895059 1.553666 0.178719 -0.452515 0.359247 0.868423 1.179035 1.208869 0.550433 -1.185471 1.036977 1.781550 -1.920460 2.516304 -0.943271 -0.814092 -1.001333 -1.386061 0.540790 -0.806263 2.137489 -1.131963 -2.638256 
bba184a5-6eb5-43d8-931f-4632d3ddc14c -2.427628 1.047646 -2.067323 -2.134597 -0.875639 -1.689766 3.821719 -2.376770 0.603218 -0.325684 -1.137261 1.056548 -0.223978 0.426735 0.351020 -1.323638 0.964943 0.903233 -0.530414 0.622912 -0.332819 0.529696 1.092361 -1.465160 0.448872 -1.230347 -0.810807 -0.581248 0.519072 1.305755 1.742878 -0.104233 
0708508b-ba2e-43f9-8035-8878b5cc361b -1.229330 -0.166152 0.308685 1.383715 1.482808 0.893785 0.986496 1.579365 0.503955 -0.217317 1.838555 1.239049 1.855965 -2.310444 1.239957 0.577358 -0.161249 -0.411226 -0.403703 -0.898345 2.686721 0.736379 -1.725841 0.870837 1.414889 1.271431 -0.942618 2.073528 2.362682 -1.073453 1.024426 -0.186462 
abae8b5d-b172-43ff-8ca0-38a265054723 -0.320417 0.504669 0.785241 1.042781 0.417368 0.831842 -0.605575 -1.004858 2.543582 -0.440459 -1.775588 0.271274 -1.205291 -1.769489 0.481745 -0.807651 -0.162350 -0.294842 -1.523353 1.096697 -1.037812 -1.452320 -1.951370 0.464002 -0.864921 -0.263625 0.853839 0.086300 -0.229598 -1.316609 -0.023049 1.436338 
f10a02af-dd56-48b9-8537-30eb033cafc5 -0.483306 0.158750 -1.182875 0.706900 0.321075 -0.023670 2.470227 -2.011029 2.687395 -1.765815 -1.387427 -1.121954 -0.123971 -1.639574 -0.874936 0.633314 -0.744857 -0.417512 -1.436789 1.939175 0.298874 0.682639 0.882682 2.231320 0.451982 -1.136906 0.177160 -0.577509 -0.340243 -0.246040 1.140188 0.335754 
610eceda-f7ce-45c4-b358-50db1c13a102 -1.765202 1.036976 0.200861 -1.425335 2.436585 1.046875 -1.731027 -0.764368 -0.644034 0.961429 -2.212398 -0.046610 0.497759 -0.450454 1.247759 -1.407497 0.079196 -1.847416 -0.495899 -1.185141 0.506386 -2.525739 2.255258 -1.688209 -0.426013 0.840517 -2.277194 -0.694918 2.908522 1.254409 0.130172 0.213151 
52b4694a-daa8-453c-a940-cd60bf90ce48 2.074467 -1.630981 -0.661501 0.615592 -2.165674 0.404681 -0.223733 -1.317425 2.348992 -1.723928 -2.517209 3.453846 0.313488 -1.973136 0.713636 0.812786 0.648616 -3.270922 0.465652 2.447463 -1.843722 -0.212097 -0.968458 -0.304608 0.409832 3.262399 -0.144750 -1.566534 0.582908 0.539881 -0.318831 2.308876 
e218a424-5313-49f3-9074-a6ebf2cd115c -1.683749 3.159406 0.299842 -2.064815 -0.679906 0.651649 -0.744447 -2.971829 0.003656 1.918528 -1.299788 0.434580 0.084696 -0.022983 0.720885 1.248011 2.804694 -3.082620 -0.513018 0.161917 0.429954 0.221612 0.952186 0.354979 1.792947 0.256230 0.588133 0.152764 -0.277262 1.991114 -1.382306 1.269140 
2388e323-00c1-4dff-8cb7-c81001bc22d6 0.999033 2.925405 -0.989389 -1.587564 2.940535 -1.501735 -0.192997 -1.364201 -0.794668 -0.493676 0.824217 1.112148 -0.133924 -2.971918 -0.315366 -0.855724 -0.504591 1.538770 0.712039 0.598917 -2.879477 1.843657 1.227723 -1.526292 3.537587 -0.071113 2.033705 0.121067 -0.702196 -2.479420 -1.407619 -1.631148 
7b13fd50-a933-4239-bab0-31a8da95efe0 0.544814 -0.155805 0.235328 0.669536 0.029081 -1.241430 -0.273617 0.498450 -0.069206 -2.058873 0.390158 -3.303128 -0.205751 -1.811481 -1.587776 -0.149411 1.840892 -1.058298 -3.292706 -1.105926 1.051362 -0.666553 0.893720 0.829895 0.556612 -1.192475 -0.085747 2.256609 -1.405659 0.890404 -0.460652 -1.131032 
ee56f048-0846-4fc1-8aa0-f7e0d8e9a2bc 0.002841 -0.397908 -1.527968 2.279081 0.110898 -1.489509 -0.091808 0.479538 -3.478039 3.845228 -1.803894 1.379756 0.738557 -2.989547 -1.987320 0.662990 1.526900 -0.449960 0.726160 -1.542792 -1.916727 -2.264996 -0.941746 1.360891 3.742037 0.430630 0.412692 1.721336 0.214381 2.913400 0.728547 0.068039 
298cdb77-52e0-43cc-9515-f64c7c301ac7 -1.907311 0.725320 -0.359821 -2.699168 0.747654 1.645178 1.398842 0.365635 -0.202546 -0.651228 -0.542134 1.035058 0.089472 -0.167445 1.026765 0.911270 0.061959 -1.138871 -0.800492 0.708169 -0.722632 0.825719 1.281108 -1.848697 -2.657033 0.761646 -0.625991 1.303170 -1.634304 0.045230 0.822013 -1.328787 
2b7abe7d-a566-451a-bb2a-d2ba96be2a80 1.115232 0.875077 1.267655 -0.550944 0.601040 1.558787 3.277269 -2.538369 -0.152767 0.753177 0.893925 0.032314 -0.281948 2.434303 -1.613038 1.387089 -0.556532 -1.078520 -0.000589 2.475368 -2.145306 0.090980 1.588227 -0.338804 -0.809809 -3.248748 1.308819 -1.305094 1.375450 0.247710 -0.706275 0.297566 
57e5bbfa-1ab9-430f-a01d-a1d2d9bd43e9 -2.014605 2.677857 -0.688662 0.716257 -0.572742 0.971492 1.479731 -1.779852 3.707103 -2.529000 -1.139028 -0.615145 1.360512 -0.388810 0.723182 0.728479 2.361924 2.117346 -1.553308 -1.111597 0.454099 1.177940 1.759112 0.797379 -3.187630 -0.457947 0.750685 -0.359462 -1.722774 0.153247 1.621270 -1.216567 
18c5946e-c453-4331-802d-789f8d04f2af -0.070796 -1.222848 0.917256 0.328400 0.312556 -0.072883 0.447201 -2.594621 -0.517430 -0.435151 -0.900950 0.748261 0.338594 -2.202248 2.247280 1.692394 1.143001 0.324177 0.375987 0.173723 -2.805402 -0.843397 -0.250956 -1.540771 -1.464259 -0.390073 1.092970 0.974782 -0.110414 1.672218 2.136047 0.497482 
21b322d0-7ba0-4b2c-afd7-5becaa0bce03 2.386037 0.335765 -2.018040 -0.940494 1.785239 -0.160519 -0.422819 -0.754635 -1.412392 0.804577 1.086333 -1.351049 0.081309 -1.669623 0.604053 -0.399476 1.877272 2.923728 -0.961634 -0.351251 -2.026035 0.812104 -0.312427 -3.382989 0.590956 0.915426 1.882851 0.694801 -1.147306 -0.799953 1.849591 -1.591133 
313a669b-31dd-4b08-a15b-af3c70780aae -1.411224 1.676404 -1.297778 -1.372662 -1.728221 2.712350 -1.923257 0.822918 -0.210765 -1.676778 -1.689543 -0.731082 -0.356027 0.151631 0.576247 0.756929 3.018687 -1.639832 -0.102619 2.784640 2.902336 -0.462692 0.933835 0.564978 0.275118 1.814566 -0.689363 -0.704564 -0.900053 1.383851 1.675514 -2.188635 
5834ca8f-4e70-45f3-ba61-af4c4b737986 2.832573 0.531982 1.849247 -0.397829 1.144435 -0.568918 0.976134 -0.067499 1.857263 -2.462813 -0.677069 1.202891 2.001156 -2.015713 -1.617062 1.069515 -0.061325 0.137766 0.639335 0.649990 -1.451550 -0.534836 0.346825 0.914880 3.117407 -2.638503 0.366127 -0.302783 -2.615937 -0.926427 1.967865 0.952238 
7d57eccf-da7a-4355-8a31-6a24214d8285 -1.514137 1.305447 -1.931410 1.574055 1.244566 0.120031 1.567216 1.279923 -0.798855 0.368847 1.082635 0.403072 2.289941 -0.342499 2.004099 -1.373692 1.804849 0.116236 0.439832 1.785954 0.035274 1.204220 2.842628 -0.137083 -0.781526 0.995408 3.835338 -1.119303 1.560614 -1.541683 -0.026548 -0.690292 
84ce4b0b-ebe4-4d8f-8be2-c2ea377c8d47 -0.344502 0.386283 -0.005667 0.888130 -0.702647 -0.415870 1.252060 -0.276683 -0.350966 0.493989 1.957019 0.175077 1.386369 1.094208 -0.801178 -1.948623 -0.389075 2.025492 -0.924342 -0.071359 -1.198862 -1.095823 2.340447 2.135382 -1.954323 1.248557 0.554635 1.347609 1.173558 -1.265051 2.603513 -1.270336 
e4d568f1-90f6-417d-b47b-89f01b79a541 -2.454195 -0.284646 0.012705 -0.398926 0.396780 -0.782569 1.381765 -1.597367 -1.134449 0.619659 -0.208351 -0.913980 0.671079 -0.770662 -1.893482 -0.298094 2.281217 -1.027799 0.401954 -0.707041 -1.014494 0.389885 -0.501835 -0.205536 0.410004 0.712293 -1.109440 2.606052 2.327489 -0.395371 -0.717487 0.458341 
79ce43a7-d95c-4b5a-af30-3fa363b709a2 -0.369955 -1.196635 -2.229034 0.642711 2.024586 0.236834 -0.149976 -0.636561 1.132963 0.156012 1.673262 0.336343 -0.497993 -0.888657 0.433606 2.327266 1.082691 0.370234 -0.015571 0.680900 2.113515 -0.417833 0.915249 1.205534 0.856308 -1.317579 1.244169 2.763403 1.955633 0.057903 -2.471555 -0.366306 
2f58f815-d892-4bce-b289-f7ffc23073a8 0.505989 0.659757 0.057639 1.989902 2.499989 0.264879 3.273429 2.238318 0.167057 -1.586712 -1.198940 2.644978 2.410587 1.434141 -0.644831 -1.127813 0.324062 -1.739494 -0.377192 0.163125 -0.590501 -2.705745 1.542229 0.975248 -0.736253 1.254649 2.667386 1.474757 -2.145090 -0.962581 -0.533250 1.942815 
6370863b-034f-4408-ab43-aa088e79b177 -1.785781 0.279552 -2.052993 0.819675 0.086809 -1.060331 2.461318 -0.713504 0.130362 1.220083 0.577521 -0.285819 0.573644 -1.687989 0.607669 0.207218 -1.356037 0.626564 -1.721313 2.903989 -0.392941 3.102102 0.729674 1.880020 -0.180718 1.038858 0.691567 1.172511 1.727513 3.131296 -1.050156 0.529207 
e34e1d4a-e64f-488f-a828-d44acb1efd97 -1.496381 0.835711 0.246468 2.273621 0.136382 1.121647 -0.452377 1.589758 -1.172065 0.500206 -2.223671 -1.348767 3.022112 -0.007853 0.406062 1.537084 2.233538 1.544331 -0.299182 0.551333 0.287819 0.436844 1.030956 0.226548 1.475217 1.053488 -1.015396 0.427301 0.249032 -3.199230 -1.157422 0.105589 
05e11750-edc0-4dea-91d9-e78d336ca52f 0.758282 3.317482 -0.978208 4.001627 -0.556536 2.249807 0.380060 -0.095641 -0.658127 -1.096119 1.570218 0.739521 0.351787 1.078303 0.489314 2.025180 0.404069 0.563084 -2.183865 0.010520 0.097252 2.218994 -1.583808 1.197096 2.776476 -1.167840 -0.796328 0.866538 0.134216 0.631811 0.614938 -0.076425 
d8da55eb-f688-4808-af15-37d1981c4379 1.065896 1.075301 -0.851717 1.575236 -0.827256 -3.755920 -0.309605 0.841000 -0.410373 0.564162 0.105177 0.128825 -3.401141 0.866901 -0.279620 -0.437379 -0.286209 -1.402492 -3.329531 -0.484578 0.240215 -2.064878 0.738426 0.762305 1.414298 3.232799 0.219167 1.690703 1.294450 2.207191 -2.802608 1.095748 
b7c9b1b0-a152-4d6a-9956-2c020e22d808 -1.524386 2.866704 -1.207451 -0.628837 0.277614 1.235056 1.395536 -1.136055 0.516855 -0.468338 -1.606369 -0.192157 -1.056281 0.151529 0.974856 1.384257 1.566589 2.544238 0.727602 1.732121 -1.109155 0.319524 2.841950 1.238310 0.736207 1.000601 -0.477334 -0.113865 -1.621394 -0.757922 0.042477 0.680156 
1126362e-7ea4-4993-8d73-659a05294cc8 0.162119 3.389832 0.146006 1.109569 -0.612729 0.177365 2.177912 2.608012 -0.952577 3.027697 -1.783498 -1.145895 1.123288 -2.681597 -3.618029 -2.051717 -1.741953 1.883975 0.053718 1.384896 -2.702993 0.257356 -0.805708 -1.248955 -0.106957 0.984382 -0.582000 -0.837351 -0.416366 1.137648 -3.683846 0.365586 
d364b6d2-666b-4cb6-9c81-0b4dbbb2954d 2.196625 0.361366 0.621982 0.351657 -2.381767 -0.603330 -3.169423 -1.704952 -0.201768 1.756780 -0.707183 0.852770 4.213967 -0.008313 0.570536 -1.507395 -2.343991 -1.244038 -1.433059 1.961587 -0.896590 0.554626 0.491025 -4.161830 2.522461 1.428205 1.349792 0.644134 -0.325247 -1.269100 -0.925630 2.272629 
e98c1959-d758-4dd7-86ef-79871c381a40 1.631548 1.749236 -1.256186 1.530375 0.411778 3.788260 -1.885790 -0.576504 0.455374 3.321708 2.104624 1.449145 2.356665 2.259376 -0.669566 1.702550 1.763142 0.121622 -0.126671 0.275559 0.101961 0.999272 1.477688 -2.497260 -0.711316 2.296983 4.060448 -1.144893 2.059300 1.902657 0.406357 -0.836489 
11d9ee98-eb39-4eb2-a2fc-f384609adbff 0.471140 1.274458 -1.365788 -0.335857 -1.292654 -2.182160 -0.393347 1.827677 -0.912618 0.027070 -4.257980 0.427723 0.304465 -1.406179 2.972064 1.804443 4.167042 -0.513066 1.800915 0.160466 2.045281 0.808046 -1.034910 -0.920296 -0.228056 -1.324306 -1.011315 -1.174163 0.337288 0.807071 -0.842740 -1.425118 
47547ccc-cb3e-4544-8ba2-c14582806f07 2.116406 4.977795 -0.511084 0.308737 1.225626 -2.687513 1.150999 0.737497 -0.110088 1.846602 2.489342 -1.981241 -0.289562 -3.432333 -1.645976 -3.167081 0.384036 2.299296 -1.233168 0.335743 -3.024030 -1.014021 -0.425121 -0.016938 -0.914367 3.690862 -1.071763 -0.722389 1.696922 0.556041 -0.840249 0.477730 
b2315fb7-bc20-4c4e-8158-b0479e7ae2d1 0.318165 -0.733618 -0.140389 2.171230 -4.613944 4.837152 -0.963505 -1.335651 -0.307532 0.887260 -1.003738 2.051695 1.373064 1.665987 -0.418314 0.097937 1.396166 0.819626 -0.173654 1.297998 1.748674 -1.770930 1.740670 1.903183 2.587549 -0.394394 -2.971859 4.191191 0.496580 -1.710015 -0.100952 2.835136 
978cedad-4c6d-4bac-9e47-9ef5570f427c -1.194657 -0.436611 -0.077612 4.055707 -0.875670 3.026104 1.641943 -0.675335 1.215040 -3.455946 -2.771542 -1.058272 1.920353 -0.426500 0.464100 0.638526 -0.496771 -0.399404 2.028455 0.264088 0.637154 0.255899 1.316365 -0.292368 -2.606262 -0.773410 3.586918 0.415736 -3.082050 -1.520316 -0.395951 -2.173828 
be332da0-e5fe-4b20-bd74-6805eecd4c5f -0.341442 1.337949 -1.392737 1.534650 -1.019556 -1.459574 -1.104877 -0.034088 0.316438 -0.616861 2.915950 0.722649 -0.608280 0.057730 -0.240481 -2.305684 0.120221 2.318466 -0.758723 -1.035741 -2.606673 0.558398 1.697533 -0.607928 4.890407 0.168565 -0.991739 0.707511 -2.336874 1.760250 1.658590 -2.166493 
3e5fdd66-22cf-4f24-9bb0-9a83e9b81dc8 0.253291 1.016671 -0.753576 -0.301491 0.615237 -1.204306 3.428008 0.032208 0.982063 1.219617 -1.582034 -2.239917 -0.754444 -0.816184 -1.662376 -1.218670 0.509555 -0.075795 -1.186946 -0.421499 -3.863445 2.040421 0.468687 0.040588 -1.409151 -0.422816 0.597162 -1.439162 -2.262939 -0.725878 -2.550847 1.266168 
5c066e1f-9122-4f3d-af4b-9b16885e7b72 2.907097 3.015918 -0.043854 0.564840 3.799339 2.946060 2.742870 0.075518 -0.661182 -2.451418 0.817118 0.467853 -2.668867 2.525459 -1.173436 -1.488395 0.840561 2.783948 -2.166304 0.729312 -1.764275 -1.691707 -0.454225 -2.999991 2.383356 -0.788649 -0.304109 0.985838 1.138587 0.821860 -0.458341 -1.260603 
15b44b7e-f413-4122-bfd0-b4cf612c8d6e 1.755703 0.106115 0.421261 2.291197 -1.524099 -1.094163 1.733473 0.936465 -0.652772 -1.246230 -3.513250 -2.184303 2.609496 0.158567 -0.336656 -1.432982 1.557597 1.972583 0.232838 -0.517982 0.685156 -1.516444 -0.924996 1.074966 -2.395454 -1.834759 2.082169 0.288216 0.101074 -4.925934 1.533605 -4.052354 
98608cff-3b5b-4695-85aa-e9700241d93e -0.023933 2.761809 -1.484498 0.366252 0.729434 2.002372 1.640974 -0.479818 1.243705 -0.573373 -2.076266 1.747835 -0.259527 -2.968756 2.441666 1.250394 0.334409 -0.670629 0.330795 0.642134 -1.589368 -3.273618 0.097956 -0.990822 -2.488300 -2.412045 1.471033 -1.960963 0.520758 1.292954 0.723085 1.372635 
54a08640-0c93-4233-97b3-5e3907471652 -1.159035 0.798321 -0.764463 -0.993362 -0.745945 -1.059585 1.363566 -2.483799 1.577483 -2.267371 0.135181 -2.257783 -0.615437 0.131337 3.134582 1.057940 0.698808 0.171492 0.289959 2.266275 -2.194980 -0.208603 -0.835128 0.024532 0.823548 -2.761274 1.993308 -1.487582 0.242097 -0.073315 -0.703457 -2.598150 
281389db-3609-42a7-828f-6912200d29be -0.508943 1.625175 2.652835 -1.793858 -1.661398 1.601890 4.605988 -0.648845 1.711256 0.210583 -1.768982 1.709364 0.706072 1.712358 -0.876071 -1.003152 -0.489515 -1.709464 -1.768291 0.884376 -1.548019 2.240528 0.126406 -0.841044 -0.965529 -1.723036 0.940002 -0.775207 2.291484 1.316285 -2.856376 0.250243 
6dea8afd-20ed-4787-9c86-91acfdfadb76 0.256880 2.273388 0.990771 -1.411568 -1.175726 0.299696 -0.609293 2.217558 0.556513 1.546032 -0.253746 0.990838 0.845677 0.220686 -5.136862 -3.203310 1.388238 2.782655 0.927623 -0.183484 -3.631875 -0.628226 2.407560 -1.834855 -1.656470 0.056512 1.108753 -0.416750 -0.597743 -0.825107 -1.731717 2.785012 
8440fa3b-1e66-4f57-924a-17168edb1aaa 1.149619 0.351398 -0.831796 3.512693 0.074462 0.236611 1.470728 0.430838 0.466498 -0.490416 1.775122 1.267306 -0.109445 -2.334806 0.549402 3.411699 -0.429727 0.439672 0.310506 2.371705 2.243543 0.177774 1.919496 3.196516 0.308886 -1.586222 2.331038 1.122119 0.386936 -0.720243 -0.742167 -0.054843 
47a6539c-8c9a-4416-858e-1358e85b363b 1.564986 1.291828 0.327576 -1.806622 -0.212727 1.683179 1.039052 -0.532772 -0.069991 0.105845 -1.024479 0.925876 -0.482989 1.502778 1.908224 2.009782 -0.436968 -1.693492 -1.684703 -3.573796 0.849859 0.453830 -1.902847 -1.377759 -0.883305 -2.175099 0.058286 2.580555 3.042746 1.838479 0.629710 3.108985 
da972db0-7475-452f-9f44-47ea4bf8de94 -1.609511 1.171126 -0.100146 -1.731297 0.420390 -0.837089 -0.722563 -1.722495 -0.357325 -1.658909 0.017254 -0.051420 0.856455 -1.618185 2.130896 -0.952931 -0.496622 -0.412422 1.860564 -0.326759 1.268298 -0.129543 -1.396703 0.765520 0.423311 -2.281260 -0.350901 1.710368 -0.317721 1.872796 2.241198 0.073650 
de226fdb-3a20-4723-abc6-c827cf4c840b 2.572248 -1.378373 4.904997 0.770388 -0.411405 0.319555 2.429215 -0.219224 1.538469 0.463891 -0.273090 0.926204 4.045275 -3.427541 0.242975 -0.000026 4.236530 -0.656026 2.191952 -0.909143 -0.508084 -0.751423 0.213018 0.872043 2.188843 -0.989108 -0.889827 -1.887524 -1.701546 -1.915974 5.564633 -0.201806 
f2ecdd99-db7c-4567-947e-f005e6b599e8 -1.599290 0.199526 -0.398144 -1.099313 -3.189028 -0.715906 0.261556 -1.209875 -0.360266 0.983184 -0.806731 0.650952 1.215294 0.635205 0.953219 1.575441 -1.125553 -0.664945 0.488741 2.266848 -0.357963 -1.339421 -1.249857 0.317123 2.928900 -0.722633 0.093863 0.131865 2.229464 1.971828 -1.820671 2.044936 
5d886020-024e-4903-9a82-c7a0f52f351a 0.203617 -0.197999 -1.460173 -1.992430 -2.153237 -0.562358 1.374579 -0.217611 -1.259570 2.763499 -1.923692 -1.224580 -1.879712 -0.000836 1.842708 0.983473 -2.101720 -1.324249 -1.628024 0.898742 -0.346461 1.043406 0.550504 -2.984767 -0.629856 1.552262 -0.100653 -2.086889 -4.694412 -0.361417 1.415829 -1.203897 
f76875d4-09a7-4183-b513-48f53cc24975 0.772072 2.760494 0.699693 0.592892 -4.052850 -0.293801 4.191474 0.344643 -4.217717 0.225706 0.153350 -0.542888 -2.683522 -0.353936 -1.833349 -0.981025 1.933442 1.467212 -1.467528 -0.784640 0.264048 1.087440 2.829172 0.174654 0.026328 -0.938421 -0.713580 0.225733 3.193635 -2.598671 -0.415480 -0.890826 
84eb6dc6-2b8e-41b2-873b-83d96e83fe1a 4.312384 -1.403658 -0.829863 1.101296 -0.190279 0.575344 3.401743 -1.075430 -3.240969 3.380652 2.445400 -0.817160 -5.287628 1.476499 -0.092700 -0.987909 -2.844883 -0.420318 -1.573300 1.617655 -1.467617 -1.655321 1.822795 -1.225148 -0.010655 -0.713942 -0.559612 0.093966 2.280085 -0.696458 -3.047068 -3.721848 
bc08b0a8-47e9-47e3-ad9e-3ad3a0a1db1b -0.084064 -1.968751 -1.178649 -0.105216 -1.764698 1.350092 -1.285684 0.674147 -0.816993 0.904192 0.458386 -0.442672 -1.767083 0.784548 -1.305416 0.905256 -0.717381 0.606739 -2.357957 2.162952 -0.078745 2.146482 -0.498586 2.637218 1.013905 -0.573031 0.678862 -2.388910 0.684821 4.132435 -1.199923 -0.744519 
ce588798-3905-40cd-b3bf-d38af7710577 -0.297361 -0.847314 -1.171992 -0.371897 -0.332365 0.063885 -0.498708 0.464133 -3.255094 1.466963 -1.077673 0.186798 0.748655 1.406950 -0.264843 0.683892 -0.243378 0.148332 -0.953849 -2.010072 -1.792536 -1.964518 2.168368 0.259009 2.617998 0.859452 1.711884 -0.185885 2.042384 -1.142925 1.555482 0.862023 
92f943d9-967c-444d-95ee-9a862e16c492 0.309649 3.784754 0.119325 2.232483 -1.035642 3.173292 2.954432 -2.087854 0.707802 -1.272804 -0.307999 0.980478 2.197230 0.463429 0.611774 -1.248319 -0.302434 0.533108 -1.953134 -1.326288 -2.898226 -1.514243 -0.591777 0.623473 -0.971618 4.024886 0.942785 1.101989 -0.882133 -0.744710 0.332123 -2.354683 
36ef629d-6a41-4ffc-b1a4-acd76cfd3a8d -1.772582 1.916640 0.442971 0.375875 0.925127 -0.654484 0.527378 0.263285 -0.998259 -0.521943 -1.470559 0.479118 0.171357 -1.619452 -0.710322 -0.268618 0.739508 -0.392991 0.820250 0.819293 1.231533 -1.586675 -0.548329 -0.183199 -0.947866 1.251163 3.418739 0.816733 -2.134112 0.594187 1.857980 -1.976665 
1fbf62f7-facf-43fd-9276-1127defd9003 0.728672 1.441754 -1.377183 0.077931 3.043772 -2.391406 -1.342799 0.380405 3.605630 -1.098816 -0.242585 0.517346 0.137297 1.050075 -2.325667 -1.702063 -1.427727 0.317001 -2.493426 -0.375163 0.398578 1.847251 -0.178884 0.925983 2.303454 -0.142530 2.681351 1.579749 3.680900 0.748946 0.394056 -0.091208 
c137534f-dd43-4cb9-86f7-0c4354e320b9 1.350206 0.975346 1.616672 -1.423087 1.919679 -1.790598 1.371801 0.205964 -0.032226 0.298231 -1.507228 0.286035 1.237952 0.947264 1.408910 1.498968 0.057381 0.122035 -2.968724 -0.905018 2.409395 -1.553945 -0.275466 0.361139 0.682755 -0.654710 -0.981266 0.576412 3.374560 0.057910 -0.906153 3.762064 
f1eeaf97-67d9-49a4-bed7-a67d1ded20bb -0.397630 -2.814531 -3.100447 0.026859 0.464961 -2.791627 1.462313 -1.484563 2.624874 1.603919 -2.087198 -0.158072 0.435066 -0.751902 -0.180625 -0.348952 -0.927770 -0.602809 -0.861632 -1.480963 0.185269 -1.401764 -0.800351 0.323599 0.925070 1.481619 0.038105 -0.553214 0.876254 0.256049 0.153100 1.782532 
ace210ee-6613-4271-9916-78720eb6d453 -1.366053 -1.922895 -0.132826 2.605168 2.360744 1.119288 1.345508 0.576813 0.120757 -0.674004 -0.610710 0.772794 -1.555520 -1.455104 1.008518 3.407673 -0.940678 1.075633 0.441716 -2.769248 1.880051 -2.334892 1.142280 -0.495429 -1.190895 0.480107 2.423218 0.903888 -1.356170 4.145016 0.015805 -0.101328 
7682b81f-e345-4126-b22e-dfe46b9edbc0 0.183082 -1.278714 -0.768770 -0.745165 -0.273995 2.238099 1.345750 0.076722 0.303052 -2.481201 -0.572089 -2.351512 1.337055 -1.661404 0.947968 -1.461330 0.403706 2.322035 -0.462664 0.913092 2.375997 -0.379287 0.760090 2.138942 0.138237 -0.235700 1.728744 0.383680 0.373533 -2.883144 0.609043 -1.803091 
13d96076-b2cb-4066-92b0-5d2249b9dc47 0.181204 0.446080 1.856984 0.419724 0.047371 2.003655 2.933461 2.797364 0.002872 -3.734794 0.076230 3.564075 1.398714 1.865520 0.073272 1.111087 1.325265 -0.128870 1.371984 0.365674 -0.536501 -3.244627 1.345239 -1.210101 -0.397033 -0.097051 -2.692472 1.408669 -1.003564 -0.985696 0.374894 -0.324909 
f1f07f6b-4cc5-4422-ac07-177d225a495f -0.282588 -1.168208 0.543057 -3.148159 0.618568 -3.834861 -2.159468 1.761618 1.525189 2.878661 -2.536565 -1.240963 0.318395 1.232539 -1.585348 -1.004511 0.285905 -3.250255 -1.154241 2.289513 -1.714670 -1.869528 -1.709455 -1.017408 1.419888 0.386289 -1.933285 -1.544385 0.396319 -1.177343 -1.871721 -0.962002 
7d4ac072-d888-47e0-ae87-3103d34cbc11 -1.827798 0.559634 0.352644 -1.714358 0.327833 -2.383092 -1.004713 0.010105 -0.928860 -0.186720 -0.216814 -2.982434 3.129954 -0.760507 2.219383 2.916661 -0.978268 -0.395471 -0.637033 -1.208844 0.676260 0.407547 0.984398 -2.729003 -0.382199 0.617101 2.690396 -0.592413 0.242043 0.989171 -0.520233 0.638103 
2aeddad3-6f2b-480c-9984-fa775d5beae4 -1.991127 1.587225 -2.713432 -2.128538 -1.775147 2.930305 -0.704573 2.148027 -0.458834 0.528335 -2.724617 3.008908 0.934230 -0.663373 -0.743935 1.654143 1.206131 2.357444 -0.105767 -0.507863 -0.473742 -0.223123 2.081889 -3.754581 -0.005593 0.784981 0.562510 0.302007 -2.078740 -1.320834 1.917971 -0.340128 
78491f2c-b62a-4308-bb65-315902135aa7 1.750332 0.482879 1.871452 -1.946955 2.592584 -3.347628 -0.200106 -0.434157 1.133431 -1.452780 1.682681 0.417959 -0.774630 -1.868444 -2.986680 0.552429 -0.352940 -0.664091 -0.665345 -0.209064 -1.117640 -0.221699 1.643082 -0.425960 -0.700026 -1.287962 -0.649927 1.458457 -1.285457 -1.569124 -2.982158 -2.956321 
ca49c8dd-7de0-42ba-a514-f2e6047ac0ee 1.290447 1.387702 1.789589 0.367799 0.257581 0.959263 2.693646 0.351162 -0.089463 -1.165885 0.215776 1.464209 0.994900 2.585474 -2.153147 1.129296 1.305417 -0.626274 -2.913498 -1.005307 2.181122 0.049394 2.651946 0.595896 -1.070509 -0.736284 -2.357764 -0.099989 -0.551422 -2.057516 1.916360 -4.956404 
0e155903-a22f-4258-9c22-c20ca09ee38f 0.056478 -0.629843 -2.178566 -4.319809 -1.502037 -1.070245 -0.510395 -0.228607 0.220898 0.952086 3.427470 1.077762 0.457998 1.946643 -1.470861 -2.367557 3.169927 2.365734 -0.787571 0.744383 0.125793 -0.507394 -1.347100 -2.916488 0.337047 -2.143468 -0.554083 2.819965 -1.309037 -1.983780 0.803254 -2.358536 
7a202584-f003-483c-b4b6-94796c5d45dc -0.689502 1.628208 -1.513835 -0.768983 -1.024206 -0.099255 1.368412 1.237487 -3.009319 -0.453235 3.155962 -2.641966 2.834689 -1.922883 0.664897 2.698962 -1.433470 1.699298 -0.860938 -1.792284 -0.971996 -1.574135 -0.199207 -1.098168 -0.705996 -3.261278 -0.477582 0.056086 1.836648 -2.640905 2.553053 -0.657590 
f3c88c46-90b3-4b67-b985-840b52098bc5 -0.748694 -0.546192 2.434783 1.153843 -2.045963 0.534046 -0.288221 -1.527615 1.408561 -1.772518 -1.850613 0.300423 -0.851989 -0.143125 -0.692164 1.348614 0.456097 -0.658282 -2.916069 1.788470 1.860375 0.343803 -2.171498 -0.515907 0.357987 -0.748379 -1.828427 1.647774 0.827312 1.850035 -0.019000 2.742776 
89e92646-f8ce-47cb-9ea5-0d9f72892178 -1.000988 -0.966193 -1.142599 -0.120701 -0.298396 2.351947 1.270314 1.029544 -2.469634 -1.916525 -2.761349 -0.644054 1.227831 0.891197 -1.640592 -3.950528 -1.784843 -0.625372 -0.646092 0.296697 0.085515 1.483354 -3.116704 -2.658142 -0.154051 -3.053222 3.550971 -1.297157 4.189649 0.685635 0.828010 -3.630258 
b5ac3917-2afd-4d7f-b47e-4b7e648ac4a3 -3.970776 -0.953412 2.405828 -1.770609 2.955240 1.636256 0.285845 1.157824 1.511057 -0.575609 0.541685 0.159904 1.199947 2.335738 -0.971739 -2.490295 -1.618715 -1.361643 -2.783295 6.463873 -2.857734 -0.949397 -0.100777 1.063087 -2.401857 -1.785199 4.087831 2.028799 0.378795 -2.678745 1.019875 0.968512 
8e7f786d-dd0d-40d4-abae-3931bc7db013 3.290719 1.414266 -1.606308 1.235345 1.558740 -3.901006 -1.345325 -2.297117 0.774451 -0.201934 1.245861 -0.598424 0.093402 1.906139 1.172843 2.181303 0.924754 -0.691533 -2.038562 2.033377 -2.441382 -0.135954 2.411266 0.852754 2.858855 0.458074 -1.625834 3.285500 -0.250147 1.460458 -1.316866 -0.701272 
112fff0f-6792-4cfa-b41f-c8e7f9e8c392 2.313419 1.032167 -2.745894 -1.525879 0.622095 -1.529941 -0.751414 -0.744011 1.737289 4.231212 1.663135 3.263473 1.318245 -1.470296 1.448409 -1.004411 0.558730 1.302135 -0.835278 -0.544831 -2.219888 -2.374391 -0.585957 -1.721270 -0.395069 -0.959555 -0.438022 -0.546284 0.256165 -0.255749 -0.842980 -0.761484 
7f95dc9e-1955-4fdb-a7c2-b9cef645ced8 -2.208194 0.007071 0.130677 0.605782 1.186043 0.402815 1.487480 -0.843856 0.254560 2.173810 1.278896 -1.857477 -1.191167 -0.773111 -5.479406 0.737870 -1.027397 -3.543684 -1.012884 -0.195808 3.191190 0.134792 -0.536083 1.762186 -1.375736 -1.330364 1.135938 3.741280 1.104978 3.401348 -0.445282 0.499191 
ac8c8dc7-50c0-49a6-a787-5770ed9943bf -2.710248 -1.403366 0.202238 1.571773 3.317200 -0.419177 0.952982 -2.265990 -0.175542 0.353267 0.483608 -1.080456 1.144771 1.275634 -1.682366 -3.176744 2.056416 -1.005445 -0.720323 0.177443 -1.770458 -1.594922 1.495123 -2.279566 0.949353 0.248120 -1.454931 1.687825 -1.250827 0.464785 1.980111 -2.052384 
587e31b1-5bbb-4f4e-9ee3-7f2d24011d60 0.759951 -1.282561 1.523756 1.571936 -0.902356 -0.798129 1.404433 1.230524 1.882627 -0.524634 -0.917759 -2.511401 -1.598515 -3.064957 -6.558773 0.340661 0.538665 -1.117483 0.829302 1.302014 2.294662 -4.224633 -3.325960 2.084730 2.891918 0.044840 0.504635 -2.691378 2.469896 -0.003614 0.798643 0.192959 
db899a6d-1d41-405c-82d4-39073a9b4e64 0.105429 1.219328 -0.831043 2.756185 -0.287221 0.559387 1.190179 -1.398720 -0.400782 1.259455 0.605971 -1.692372 -3.821025 -0.182577 -2.687616 -0.635483 -3.724167 -0.654516 -1.253556 -0.086501 1.553057 -0.033243 -0.593277 -0.694867 -0.540156 -0.550241 0.432508 2.615746 0.345388 -2.057640 -2.284646 2.677349 
